継続 -3.0070650577545166 4.194270610809326 9.708065032958984 4.857790946960449 0.24066844582557678 14.560552597045898 0.5133211612701416 4.147848606109619 3.246677875518799 3.6273396015167236 22.30401039123535 2.4351961612701416 -19.238916397094727 28.71834373474121 5.5975341796875 -20.814449310302734 -4.812097072601318 25.837268829345703 -1.5253511667251587 -5.785261631011963 0.051150813698768616 42.1505241394043 -10.840544700622559 -0.33122530579566956 -15.556842803955078 -1.4076435565948486 3.8864235877990723 7.51126766204834 72.56893920898438 34.524009704589844 -6.566974639892578 9.336433410644531 -17.52663803100586 -3.9763102531433105 -8.886929512023926 1.7029179334640503 20.61885643005371 53.53813934326172 -5.203370094299316 -1.732914924621582 5.077422618865967 -6.616122245788574 12.754852294921875 9.09363842010498 6.187028408050537 64.8158950805664 -2.239680528640747 -3.2318923473358154 16.155059814453125 18.806133270263672 -3.13716983795166 -8.956319808959961 10.244300842285156 -10.961057662963867 -15.114495277404785 -2.9215102195739746 1.7614027261734009 -1.4784244298934937 -2.799854278564453 30.14207649230957 -3.301483631134033 24.71026611328125 1.5274696350097656 24.41297721862793 62.389522552490234 31.86358070373535 59.366973876953125 17.09831428527832 27.29422950744629 47.87361526489258 16.976160049438477 17.34931182861328 1.4804162979125977 3.5679240226745605 17.358219146728516 8.432695388793945 70.3128433227539 32.26483154296875 11.737252235412598 33.9411735534668
使え -6.518312931060791 -3.575972557067871 5.03410530090332 -11.468960762023926 1.234480381011963 -21.144893646240234 -6.299849987030029 -8.255167961120605 15.11190414428711 -15.48061466217041 41.47898864746094 18.109256744384766 20.85669708251953 21.287660598754883 -11.097284317016602 28.40829086303711 -4.13498592376709 29.94924545288086 -14.539676666259766 6.370901107788086 19.41826820373535 34.91240310668945 -23.632062911987305 13.996708869934082 -24.33687400817871 2.5629446506500244 2.409393787384033 2.363516330718994 61.11415481567383 22.54251480102539 -17.179935455322266 -1.8889713287353516 -19.82796287536621 -0.8097710609436035 -4.127883434295654 -10.901020050048828 60.593692779541016 41.328826904296875 -19.220706939697266 19.545154571533203 2.9271156787872314 8.107155799865723 89.53125762939453 38.21092987060547 19.422483444213867 82.36959838867188 -0.4848359227180481 -7.343945503234863 11.670393943786621 17.897958755493164 -2.764871120452881 -10.352553367614746 -15.573030471801758 5.506619930267334 4.988956451416016 -10.482471466064453 10.590819358825684 -12.556512832641602 5.4052581787109375 37.914424896240234 -0.281436949968338 41.29411315917969 -14.113428115844727 24.239713668823242 86.4918212890625 23.350177764892578 62.18437957763672 28.341201782226562 38.35659408569336 60.53337860107422 16.555757522583008 5.300159454345703 26.275074005126953 -2.7525012493133545 19.216856002807617 16.392120361328125 55.04020690917969 49.681583404541016 25.95041275024414 36.31630325317383
怖く -11.148737907409668 7.084405422210693 -5.11315393447876 0.8025500774383545 1.90018630027771 17.391407012939453 -12.175121307373047 -2.758197546005249 28.46010971069336 4.1692047119140625 -5.295952796936035 -11.300512313842773 -5.151411056518555 26.304180145263672 14.45661735534668 -14.498032569885254 -13.280048370361328 16.602031707763672 -12.518142700195312 -16.53827667236328 3.9467272758483887 73.35286712646484 -12.023303031921387 -14.193848609924316 -24.09937858581543 12.46501636505127 34.831642150878906 3.791015386581421 71.61000061035156 72.23297119140625 -5.269440174102783 -1.2199326753616333 -12.905261993408203 -16.171499252319336 -24.38172721862793 0.49829965829849243 50.958335876464844 42.71278762817383 -1.2690092325210571 -15.964489936828613 33.84598159790039 8.383310317993164 76.63850402832031 12.977601051330566 17.96630859375 80.13802337646484 -11.500763893127441 -13.64306926727295 29.100358963012695 23.64196014404297 -0.7996479868888855 -5.722238063812256 31.138442993164062 -4.480738162994385 -7.487593173980713 -16.851146697998047 26.716236114501953 15.390767097473145 -26.69902801513672 19.54571533203125 -12.051691055297852 29.32183074951172 -0.5645791292190552 49.405517578125 54.48417282104492 13.490880012512207 74.69644165039062 9.922765731811523 35.31969451904297 32.36922836303711 27.258935928344727 51.98887252807617 10.24094295501709 14.762691497802734 17.89323616027832 27.98192024230957 65.74881744384766 65.27656555175781 10.725635528564453 26.324010848999023
毒 -10.462423324584961 -5.9175124168396 15.991888046264648 2.169741153717041 -3.088900566101074 -17.61361312866211 -12.806224822998047 -9.920345306396484 16.1575927734375 -11.703958511352539 6.922580242156982 -8.233241081237793 11.483075141906738 37.424888610839844 26.14253044128418 4.0301513671875 1.3554898500442505 8.305877685546875 -27.59959602355957 -31.36870002746582 -12.270291328430176 37.4611930847168 -35.44004821777344 -21.435691833496094 -35.69593048095703 -18.6413631439209 -13.273344039916992 -5.6536126136779785 62.412227630615234 53.63747787475586 -41.4658317565918 -7.888810634613037 -32.272377014160156 -7.26507043838501 -23.505653381347656 9.613920211791992 21.890670776367188 30.393552780151367 -22.565967559814453 -1.6820471286773682 2.1202287673950195 -16.582632064819336 -6.680882453918457 -14.639328956604004 2.091888904571533 50.48204803466797 -2.2160604000091553 -1.5840766429901123 1.391334056854248 36.70038986206055 -10.872438430786133 -18.258115768432617 0.5509253740310669 -24.2939510345459 -24.644489288330078 9.196630477905273 -1.0882233381271362 1.2918812036514282 -28.35076332092285 -2.8655638694763184 -7.7262420654296875 36.28844451904297 -11.38299560546875 18.51112937927246 72.62440490722656 22.74264144897461 37.401832580566406 31.075273513793945 8.8236665725708 49.71089553833008 23.54174041748047 7.229584693908691 -0.04893559217453003 10.771158218383789 41.966773986816406 15.07040786743164 39.16276550292969 23.454559326171875 8.566598892211914 25.15495491027832
出す/だす 44.68681335449219 45.280601501464844 0.3042551875114441 -7.2356438636779785 -1.9589884281158447 -11.481962203979492 90.63993835449219 11.401908874511719 36.857322692871094 -14.829345703125 13.8660888671875 4.584661960601807 23.510498046875 6.905226230621338 14.513681411743164 31.918869018554688 156.38157653808594 -4.563728332519531 49.10878372192383 80.9437026977539 70.91466522216797 51.15754318237305 56.42399978637695 105.94039916992188 198.6478729248047 63.28414535522461 235.29071044921875 35.274898529052734 79.93408966064453 46.469058990478516 160.9713897705078 69.99071502685547 172.31472778320312 19.460336685180664 135.48582458496094 66.408935546875 51.554420471191406 83.03524017333984 53.538761138916016 180.85256958007812 121.14337921142578 180.8742218017578 53.13502502441406 14.726125717163086 105.00373077392578 44.645851135253906 92.4045181274414 96.37033081054688 90.41571807861328 124.6072998046875 196.45997619628906 49.997589111328125 137.4313507080078 176.97250366210938 156.88778686523438 93.28710174560547 98.02592468261719 12.388496398925781 -8.77646255493164 123.33991241455078 93.4703369140625 89.89568328857422 243.24513244628906 13.005436897277832 90.47376251220703 24.430522918701172 91.77934265136719 57.30412673950195 84.56324768066406 78.87651824951172 151.1234893798828 27.880739212036133 188.57022094726562 129.06048583984375 183.34141540527344 85.55987548828125 142.0806427001953 86.08572387695312 71.74182891845703 107.15725708007812
出よ/でよ 58.54064178466797 56.9134407043457 1.214720368385315 4.57815408706665 -1.9589884281158447 9.75728702545166 99.97798919677734 1.2112631797790527 27.65279769897461 -14.829345703125 13.8660888671875 -13.737783432006836 23.510498046875 15.023702621459961 14.513681411743164 31.918869018554688 158.92396545410156 28.101516723632812 69.01966094970703 59.22312545776367 75.37025451660156 26.426753997802734 70.5960922241211 90.99800109863281 209.8213653564453 74.81912994384766 252.65802001953125 52.76227569580078 68.1346435546875 64.52800750732422 186.38182067871094 87.7701187133789 168.1596221923828 29.097883224487305 156.8862762451172 91.47240447998047 64.86589813232422 50.05682373046875 51.43021774291992 171.49095153808594 111.3412857055664 125.88736724853516 43.56562805175781 21.5950927734375 127.14817810058594 89.38114929199219 104.58455657958984 105.669189453125 88.96729278564453 104.05716705322266 192.3113555908203 60.96845245361328 105.10556030273438 137.2035675048828 158.49334716796875 90.20755004882812 101.24784088134766 45.283355712890625 -11.436858177185059 60.08602523803711 85.49549865722656 70.99148559570312 261.8382873535156 23.04853057861328 82.04212188720703 15.832354545593262 52.236610412597656 57.69954299926758 93.91960144042969 66.68006896972656 153.63600158691406 34.90787887573242 210.17173767089844 137.6083526611328 184.897216796875 75.9971923828125 167.5331573486328 53.6909294128418 96.32624816894531 138.1619415283203
層 -3.9495279788970947 2.484912633895874 -2.4203319549560547 2.654315948486328 -4.862429141998291 -10.409661293029785 -3.9147303104400635 -11.745057106018066 9.9423246383667 -11.72452163696289 44.31507110595703 -4.664200305938721 15.589945793151855 21.054353713989258 13.510025024414062 12.920655250549316 -2.196659564971924 1.2977120876312256 -19.902992248535156 -29.020780563354492 -4.991097927093506 30.59151268005371 -36.122886657714844 -23.822633743286133 -35.01821517944336 -12.12120532989502 -15.514457702636719 -5.80555534362793 56.14752197265625 49.95905303955078 -30.048912048339844 -9.554996490478516 -13.962231636047363 -7.682027339935303 -6.032558441162109 8.883688926696777 32.081512451171875 41.44072723388672 -22.20285415649414 7.096714019775391 9.097166061401367 -17.162933349609375 22.817935943603516 -20.72686004638672 13.076931953430176 46.55636215209961 12.053072929382324 3.7976019382476807 5.047213554382324 32.936927795410156 -5.146454811096191 -9.009483337402344 -3.9766440391540527 -24.084274291992188 -7.434170722961426 2.687272548675537 14.418524742126465 -5.554189682006836 -9.022825241088867 13.858254432678223 -0.43916183710098267 31.79730987548828 -3.683323860168457 24.50883674621582 76.52660369873047 25.327648162841797 32.49677658081055 28.117765426635742 23.261608123779297 41.50837326049805 17.911983489990234 13.118518829345703 -1.3072922229766846 5.787310600280762 40.979312896728516 22.694313049316406 38.84626770019531 27.745208740234375 11.412309646606445 18.332550048828125
光沢 -2.9731485843658447 -3.6765124797821045 -3.014068841934204 10.524040222167969 -8.761736869812012 -13.078998565673828 -6.600994110107422 -2.507337808609009 5.273813724517822 -7.698319435119629 28.932430267333984 17.610275268554688 -7.720638275146484 21.738765716552734 11.971683502197266 9.843427658081055 11.035928726196289 14.965842247009277 -9.083829879760742 -8.608898162841797 4.5259881019592285 21.460752487182617 -8.508489608764648 -5.0227508544921875 -8.87838077545166 -2.1197900772094727 7.616384983062744 -5.873908996582031 70.54351043701172 39.30072021484375 -3.5345277786254883 1.8139142990112305 -11.881485939025879 -11.50002670288086 0.11297579854726791 -5.842123985290527 54.67696762084961 48.38358688354492 -11.260285377502441 -9.727968215942383 5.327798843383789 3.0747337341308594 2.0673201084136963 0.6030240654945374 -0.5668857097625732 80.88113403320312 1.0522338151931763 -7.048489093780518 17.749889373779297 25.65713882446289 2.9851341247558594 -9.955842018127441 0.14269563555717468 -13.01895809173584 -8.069281578063965 -8.020090103149414 7.628844261169434 -6.6942267417907715 -11.464109420776367 27.549814224243164 7.025842189788818 29.637155532836914 -17.77028465270996 10.706920623779297 81.6265869140625 32.36510467529297 42.382286071777344 20.755685806274414 27.995372772216797 72.39701080322266 28.01710319519043 5.185705184936523 4.169912338256836 2.6398634910583496 20.03386116027832 11.842562675476074 63.659420013427734 42.058162689208984 14.10245132446289 22.491313934326172
言え -6.518312931060791 -1.9513903856277466 21.565418243408203 -11.468960762023926 -15.405217170715332 -14.851323127746582 -5.698240756988525 -5.416510105133057 16.49405860900879 -9.463255882263184 -7.960960388183594 -13.419746398925781 18.096677780151367 21.287660598754883 56.07591247558594 -15.521291732788086 -1.9602645635604858 40.266395568847656 -1.6721107959747314 -3.5211925506591797 7.346254825592041 38.09843444824219 -17.3983154296875 10.316841125488281 -6.045025825500488 -8.944165229797363 11.325007438659668 2.853975772857666 50.760066986083984 34.391971588134766 -9.14476490020752 2.1942524909973145 -22.889583587646484 5.685129165649414 -1.779237151145935 -0.9355803728103638 55.89775085449219 57.50397491455078 -12.656441688537598 9.895866394042969 -1.1223119497299194 -6.822943210601807 16.344919204711914 9.162421226501465 18.489879608154297 65.83555603027344 0.9610148072242737 -5.508963108062744 12.384532928466797 30.828298568725586 5.639638423919678 -6.473960876464844 -2.8927440643310547 -0.3884139060974121 6.1510009765625 -14.865701675415039 8.32553482055664 -15.465106010437012 -6.0850749015808105 15.936232566833496 -6.271072864532471 41.043006896972656 -10.688128471374512 14.050437927246094 89.39762878417969 31.332807540893555 81.3589096069336 41.054954528808594 20.5681095123291 50.66907501220703 14.670037269592285 14.089893341064453 31.204448699951172 -1.536578893661499 18.33915901184082 14.286235809326172 43.74775314331055 35.6418571472168 44.01724624633789 26.225290298461914
寒く -12.738690376281738 -0.9788640141487122 -11.577960014343262 -1.2366552352905273 -5.774364471435547 -0.7311230897903442 -6.733956813812256 -9.25295639038086 5.521036624908447 -9.343806266784668 20.76225471496582 -17.633670806884766 21.8956241607666 13.33975601196289 0.04899588227272034 7.571950435638428 -14.640965461730957 13.89191722869873 -4.10639762878418 -7.219710350036621 -0.14928027987480164 73.70050811767578 -14.521217346191406 -10.37889289855957 -30.510074615478516 5.345947742462158 43.92561340332031 1.3708748817443848 59.11640930175781 37.246910095214844 -7.478686809539795 22.931753158569336 -12.34156322479248 -17.91594696044922 -23.608394622802734 -3.581929922103882 55.429298400878906 44.261295318603516 -7.8521623611450195 -14.42279052734375 22.923568725585938 6.865388870239258 61.84556579589844 32.11496353149414 24.0257511138916 88.6573257446289 -8.504437446594238 -17.014131546020508 19.567272186279297 30.553205490112305 2.255783796310425 1.8804916143417358 31.748632431030273 -6.570090293884277 -0.8524311184883118 -15.334228515625 48.12679672241211 15.64373779296875 -40.22888946533203 26.459468841552734 -11.675737380981445 30.93495750427246 10.525080680847168 42.964637756347656 56.88283920288086 10.655617713928223 88.55802917480469 8.204367637634277 48.964786529541016 34.141719818115234 6.469176292419434 45.62974548339844 30.593137741088867 16.523042678833008 17.967220306396484 21.105697631835938 63.94437789916992 60.19668197631836 13.303141593933105 31.380369186401367
持た/もた 37.73896026611328 47.95614242553711 33.15817642211914 12.726136207580566 -1.9851247072219849 -28.98554229736328 94.3279800415039 -11.355400085449219 -15.824918746948242 -16.51749610900879 3.4089343547821045 2.8229503631591797 15.433431625366211 8.964698791503906 50.843692779541016 6.806728363037109 172.229736328125 4.628875732421875 61.16530990600586 64.51896667480469 93.70822143554688 39.367897033691406 54.869117736816406 98.91189575195312 228.91566467285156 58.08930206298828 236.46713256835938 48.447879791259766 90.43136596679688 46.15645217895508 152.34519958496094 49.82155990600586 163.78427124023438 34.90445327758789 154.9130096435547 79.36042785644531 55.88146209716797 129.09927368164062 26.84214210510254 171.00927734375 115.3290023803711 128.2386474609375 39.22463607788086 -33.43602752685547 94.30065155029297 79.50194549560547 87.10137176513672 105.57707214355469 68.80776977539062 97.55008697509766 181.6775665283203 68.52499389648438 69.36711883544922 128.67813110351562 170.3439483642578 64.70598602294922 131.38006591796875 10.160672187805176 -17.960309982299805 20.399751663208008 127.13568115234375 93.84259796142578 236.6256103515625 8.19289493560791 122.43389129638672 7.416781425476074 83.1220932006836 68.33545684814453 87.91934967041016 71.73993682861328 162.9120330810547 15.893439292907715 210.02264404296875 108.42874145507812 162.51397705078125 82.21501159667969 163.80853271484375 42.4923210144043 111.17037200927734 105.06654357910156
盛り -14.789262771606445 -9.079789161682129 0.6952882409095764 0.7164174318313599 17.903793334960938 -16.765480041503906 -6.448527812957764 -20.22190284729004 26.91868019104004 7.0464630126953125 13.58953857421875 -3.6287126541137695 6.022425651550293 10.313608169555664 3.9755382537841797 20.809612274169922 -9.160728454589844 7.1109700202941895 -5.4247565269470215 18.800405502319336 6.379194736480713 21.37990951538086 -0.8042035102844238 5.094357013702393 -25.083581924438477 -9.746509552001953 11.591085433959961 -3.040146827697754 69.91859436035156 61.15019989013672 -6.723066806793213 -5.086535453796387 -24.431352615356445 -7.595546722412109 -13.301162719726562 -4.366840362548828 33.69929122924805 54.76484680175781 -24.926231384277344 -17.057716369628906 4.076398849487305 -7.505912780761719 51.11613464355469 -11.671643257141113 0.6466241478919983 67.57791900634766 -10.243571281433105 -6.857052326202393 26.698196411132812 37.6700439453125 -11.242133140563965 -16.07205581665039 -12.40179443359375 -20.840904235839844 -17.03106117248535 -24.838035583496094 -5.605998516082764 -8.24516773223877 -12.784098625183105 40.10742950439453 -8.260993003845215 33.99613571166992 -1.6800215244293213 11.979923248291016 77.41348266601562 24.208513259887695 70.70266723632812 20.15260124206543 50.43885040283203 68.93601989746094 7.180083751678467 14.310340881347656 6.01115083694458 1.1077649593353271 16.468976974487305 16.77002716064453 68.27342224121094 59.68608474731445 14.589366912841797 39.846229553222656
泣け/なけ 52.12250518798828 53.25341033935547 11.51041316986084 -2.9257075786590576 23.274866104125977 2.6660354137420654 100.91952514648438 -7.6390180587768555 14.750602722167969 -11.462992668151855 23.58247184753418 -3.459341287612915 -18.230125427246094 47.670326232910156 -4.150421142578125 -0.3367619514465332 151.32102966308594 25.879053115844727 61.48090744018555 73.76359558105469 68.15682220458984 35.80864334106445 59.30265808105469 110.46774291992188 215.19566345214844 57.87343978881836 259.78802490234375 23.694067001342773 84.29532623291016 39.655731201171875 169.7132568359375 57.614418029785156 181.96975708007812 26.804288864135742 151.06483459472656 94.30573272705078 56.20557403564453 41.46952819824219 48.27983093261719 173.63710021972656 130.65293884277344 143.7039337158203 46.606807708740234 23.46894073486328 107.49114227294922 107.82933807373047 87.99662017822266 111.7840347290039 89.2403793334961 109.3084945678711 208.0898895263672 49.64976119995117 79.35552978515625 135.5097198486328 153.62478637695312 89.32438659667969 121.38371276855469 25.48299789428711 -6.085532188415527 55.787113189697266 76.40784454345703 81.4534683227539 255.69854736328125 27.370574951171875 109.22038269042969 10.06983757019043 36.45915222167969 43.69437026977539 80.21031951904297 85.70014190673828 150.44476318359375 78.6018295288086 242.51475524902344 108.70604705810547 179.0020751953125 44.25758743286133 187.03042602539062 51.004638671875 135.16090393066406 119.91847229003906
家族 2.434236764907837 3.2632029056549072 3.799363851547241 15.366348266601562 10.88626766204834 -0.472673624753952 -1.86996328830719 3.746344804763794 20.23433494567871 -1.0151004791259766 -9.863131523132324 -1.014459490776062 8.157964706420898 33.308040618896484 7.673418998718262 -1.847046136856079 10.704001426696777 6.307500839233398 3.6644058227539062 -2.9450531005859375 5.816049575805664 47.6226806640625 6.65873384475708 -3.142706871032715 5.379130840301514 1.9535024166107178 10.77531909942627 15.920881271362305 92.48322296142578 34.183319091796875 6.843141078948975 14.79132080078125 -2.6589455604553223 -10.110523223876953 4.966170787811279 0.11248501390218735 29.929203033447266 64.19464111328125 -7.375088214874268 -11.549858093261719 27.578319549560547 3.186199903488159 11.015223503112793 19.637325286865234 3.459959030151367 90.06948852539062 -1.4753963947296143 5.525381088256836 7.310951232910156 22.4025936126709 -3.9490549564361572 3.4437973499298096 11.824365615844727 -2.169877529144287 -5.9227728843688965 -3.3343093395233154 10.3033447265625 -4.92631721496582 -2.9490489959716797 11.674251556396484 3.013385772705078 27.28152847290039 0.0984639972448349 22.897029876708984 76.02581024169922 22.961877822875977 51.15198516845703 23.844942092895508 34.02521896362305 63.50579833984375 16.567873001098633 13.91716480255127 4.041947841644287 7.591465950012207 11.293479919433594 16.762542724609375 65.12206268310547 35.55024719238281 10.083108901977539 41.043426513671875
人達 2.7881579399108887 1.0223870277404785 38.73087692260742 36.05825424194336 5.2848076820373535 -6.118083953857422 1.8169296979904175 5.829136848449707 28.555952072143555 16.713823318481445 14.564590454101562 7.3499884605407715 4.387568950653076 52.69329833984375 6.436911582946777 -0.928855836391449 -0.654484212398529 12.4325532913208 -2.6730780601501465 -4.1332011222839355 2.7373969554901123 28.739673614501953 -7.366405963897705 -6.951409339904785 -1.3763713836669922 -15.880916595458984 8.468710899353027 1.2782272100448608 80.37625122070312 53.06140899658203 -0.2911587655544281 0.7528219223022461 -16.50146484375 -11.68112850189209 -1.522762656211853 2.5900282859802246 45.23090744018555 54.43861389160156 -5.147993087768555 -10.259005546569824 12.416605949401855 9.9254789352417 -19.048038482666016 3.1180813312530518 1.069084644317627 80.24810028076172 -7.342902660369873 -5.6505303382873535 8.787643432617188 13.764251708984375 -5.706399440765381 0.08461697399616241 17.352367401123047 -17.54482650756836 -14.043670654296875 -7.000803470611572 11.228939056396484 -5.49181604385376 1.6890523433685303 11.590559005737305 -2.440985679626465 32.548282623291016 -8.769705772399902 15.315360069274902 74.27082061767578 29.823678970336914 49.01130294799805 8.520298957824707 26.969449996948242 35.4045524597168 17.009334564208984 10.349494934082031 -0.49476927518844604 -2.021430253982544 15.51169204711914 7.85944938659668 76.70756530761719 34.37676239013672 26.67259979248047 27.50340461730957
探っ/さぐっ 39.108333587646484 54.83558654785156 -28.6570987701416 -6.768762111663818 20.50054931640625 -14.831768989562988 88.92796325683594 6.09839391708374 14.642176628112793 -13.883867263793945 -4.871737003326416 -19.403736114501953 12.525927543640137 16.457698822021484 -0.43506526947021484 6.128565788269043 166.41213989257812 30.628931045532227 57.15188980102539 69.42208099365234 65.082763671875 76.61113739013672 68.74334716796875 115.91139221191406 208.09066772460938 47.818504333496094 249.5097198486328 53.504005432128906 96.43513488769531 53.4185791015625 200.09014892578125 90.89590454101562 211.4460906982422 26.532447814941406 161.93179321289062 73.30793762207031 23.835721969604492 114.94889068603516 52.66317367553711 173.79766845703125 145.2467041015625 153.091064453125 -20.049610137939453 -19.99954605102539 115.88407897949219 87.00848388671875 107.66056823730469 108.98725128173828 97.63372039794922 150.6776123046875 207.54112243652344 43.14482879638672 113.64291381835938 128.47642517089844 162.9911346435547 77.95697021484375 95.29261779785156 29.817401885986328 -6.836447238922119 41.95848846435547 82.68527221679688 86.03761291503906 255.67562866210938 29.055282592773438 170.45761108398438 26.907848358154297 40.1433219909668 37.894996643066406 61.25659942626953 121.90117645263672 160.6778564453125 42.99054718017578 217.64569091796875 141.74107360839844 190.4857635498047 112.57455444335938 172.62989807128906 58.360042572021484 129.5448760986328 162.7295379638672
置か -5.330458164215088 -8.444136619567871 23.152362823486328 14.034320831298828 39.130958557128906 24.325929641723633 -7.043576717376709 -9.523484230041504 14.506575584411621 34.84471130371094 26.697368621826172 -8.975149154663086 -29.498031616210938 7.555922985076904 -23.947343826293945 14.769798278808594 10.139161109924316 14.466341972351074 -8.247265815734863 8.922307014465332 -19.091577529907227 38.90293502807617 -3.7913851737976074 25.29936408996582 -27.82538414001465 2.5709803104400635 -2.3808348178863525 -4.13359260559082 86.66071319580078 31.989168167114258 -22.119510650634766 -9.540910720825195 -10.327109336853027 -9.570625305175781 1.812290906906128 0.3418387770652771 36.67795181274414 71.48190307617188 -28.149267196655273 -6.0362372398376465 19.103796005249023 15.653796195983887 29.10198211669922 7.315183639526367 -17.88559913635254 71.07413482666016 -14.592264175415039 -4.923881530761719 16.9381046295166 64.50967407226562 -5.380188465118408 -1.6515834331512451 22.301809310913086 -9.058757781982422 -14.401392936706543 -7.7727131843566895 10.016641616821289 1.9838905334472656 -39.48020935058594 48.94788360595703 -7.007702827453613 30.206350326538086 -19.181411743164062 45.31986618041992 80.20077514648438 16.845808029174805 63.81098175048828 38.08271026611328 36.25415802001953 37.00520324707031 24.105682373046875 20.543563842773438 21.378862380981445 14.351946830749512 25.014869689941406 60.60898208618164 60.7822265625 29.009380340576172 14.5986328125 26.4888858795166
短かっ/みじかかっ 39.10829162597656 54.83561706542969 24.519033432006836 23.372669219970703 63.26661682128906 19.737585067749023 88.92793273925781 -2.133519172668457 15.978240013122559 7.520855903625488 34.87633514404297 -14.372404098510742 -1.283774971961975 20.66364288330078 -2.981804132461548 1.8606958389282227 180.8542022705078 44.7705078125 58.72514724731445 73.44537353515625 69.08769226074219 121.40974426269531 84.36476135253906 141.15467834472656 201.95895385742188 44.667198181152344 242.2784423828125 54.46055603027344 131.55335998535156 30.40961456298828 185.31236267089844 93.88166809082031 191.53677368164062 8.218562126159668 145.03106689453125 73.23397064208984 40.02752685546875 124.0104751586914 49.185054779052734 140.8084716796875 135.75369262695312 146.03744506835938 34.44256591796875 -3.881349563598633 55.94865798950195 51.03225326538086 127.45569610595703 98.23651885986328 123.31249237060547 230.4070587158203 190.8959503173828 56.015846252441406 158.9473876953125 106.47200775146484 129.87832641601562 86.4703369140625 91.93472290039062 23.254730224609375 -26.073793411254883 71.00988006591797 77.56659698486328 79.234375 254.88040161132812 55.12017059326172 133.77374267578125 55.241920471191406 46.202789306640625 99.35487365722656 39.8607063293457 134.8326416015625 145.173583984375 33.771507263183594 173.59010314941406 181.6394805908203 189.2631072998047 195.48414611816406 102.76472473144531 39.18729782104492 98.17230987548828 94.89207458496094
壊れる -5.2144575119018555 2.7178828716278076 -27.346271514892578 -12.564781188964844 2.8202626705169678 43.548095703125 2.0320258140563965 3.6484122276306152 32.70549392700195 14.783528327941895 12.79748821258545 -6.549034118652344 -21.719270706176758 22.710216522216797 -7.226356506347656 -4.033304214477539 4.853335380554199 6.872640609741211 4.704351425170898 -2.5506675243377686 51.38987350463867 37.62861633300781 -10.572278022766113 6.52044677734375 -2.0138285160064697 -3.5835788249969482 33.10438919067383 -0.8866991400718689 8.36898422241211 64.17655181884766 0.11013923585414886 19.4051570892334 5.044929504394531 -8.22741985321045 1.4676507711410522 12.95950984954834 24.49506378173828 72.15159606933594 -14.17116928100586 -5.931124210357666 13.117774963378906 -17.62831687927246 12.470190048217773 26.666757583618164 -1.1893019676208496 68.568115234375 11.55813217163086 1.9130606651306152 45.282203674316406 26.362442016601562 6.686739444732666 -2.5738871097564697 5.098898887634277 7.4173583984375 -0.1318405717611313 24.95231056213379 -0.14526265859603882 -10.581103324890137 -14.06827449798584 31.501148223876953 16.302963256835938 34.62238311767578 -15.04966926574707 21.025676727294922 54.83903503417969 45.47230529785156 39.56328201293945 54.927860260009766 15.680356979370117 76.43215942382812 27.740942001342773 31.7197265625 11.788163185119629 5.347143650054932 78.54810333251953 22.28176498413086 50.27763748168945 64.35115814208984 29.135974884033203 41.80237579345703
経営者/けいえいしゃ 34.38975524902344 50.1145133972168 4.740584373474121 4.322423934936523 29.92413330078125 8.816080093383789 82.62603759765625 12.075824737548828 9.751337051391602 -0.5700072050094604 28.254634857177734 -0.989241361618042 13.958949089050293 22.934778213500977 6.215264320373535 5.304847240447998 150.62246704101562 36.6379508972168 62.145259857177734 64.7047348022461 67.15679931640625 24.034757614135742 41.51463317871094 88.25608825683594 208.85360717773438 57.59638977050781 226.1934814453125 46.10625076293945 72.20072174072266 61.46541976928711 168.4705352783203 73.5795669555664 163.63401794433594 31.768474578857422 145.75320434570312 70.80034637451172 67.22832489013672 82.79456329345703 32.68610763549805 150.4906005859375 109.4438705444336 132.3500213623047 -3.0747733116149902 -17.335140228271484 87.01254272460938 89.8760986328125 85.7579574584961 78.13372039794922 83.52613067626953 121.9534683227539 170.1463623046875 43.486328125 92.09774017333984 183.87496948242188 146.7548370361328 78.4292984008789 87.9111099243164 30.52691078186035 -11.068885803222656 26.6534423828125 75.99323272705078 54.52562713623047 243.38824462890625 21.150218963623047 91.67308807373047 21.95505714416504 49.279502868652344 89.56318664550781 68.96300506591797 38.1069450378418 150.9147186279297 31.190908432006836 174.52464294433594 143.34805297851562 191.56436157226562 64.14599609375 107.2371826171875 72.62528991699219 62.8359489440918 77.09407043457031
歌っ/うたっ 39.108333587646484 54.83558654785156 -20.46945571899414 -15.904631614685059 22.150524139404297 -8.373056411743164 88.92796325683594 -0.6294164061546326 7.8043012619018555 -23.753454208374023 -20.125225067138672 16.275928497314453 20.90966796875 16.457698822021484 -6.256040573120117 25.273391723632812 159.73789978027344 24.099998474121094 58.01622772216797 71.4141845703125 35.86908721923828 65.39677429199219 73.08663177490234 115.71685028076172 228.88128662109375 57.766780853271484 247.0421905517578 83.71205139160156 102.8152084350586 58.523399353027344 190.4624786376953 86.53179931640625 207.1995086669922 13.992509841918945 147.093505859375 76.44930267333984 35.873382568359375 146.2547607421875 56.44533920288086 158.1492919921875 126.12349700927734 143.51779174804688 44.7758903503418 -11.468344688415527 111.91106414794922 84.9249038696289 102.61996459960938 118.60997772216797 108.59646606445312 145.59371948242188 201.0281982421875 60.76677322387695 71.53218078613281 130.01922607421875 166.21026611328125 52.43465805053711 97.62921905517578 19.684894561767578 -23.88993263244629 39.118865966796875 94.52632141113281 119.13407135009766 259.68585205078125 15.605072975158691 166.56076049804688 20.510786056518555 33.62704849243164 70.85162353515625 70.88101959228516 102.97577667236328 163.19436645507812 4.942506313323975 229.41688537597656 137.55624389648438 177.24203491210938 107.40838623046875 182.77438354492188 27.790422439575195 120.73196411132812 161.40127563476562
持ち込ま -0.8857943415641785 3.6841726303100586 33.15817642211914 8.880497932434082 -0.3352919816970825 6.0151872634887695 7.096823692321777 -4.479388236999512 7.963916301727295 -11.921141624450684 3.4089343547821045 15.56187629699707 15.433431625366211 16.910737991333008 50.843692779541016 5.370976448059082 20.087602615356445 19.151880264282227 -2.9512276649475098 -6.926793575286865 7.772183418273926 30.58548355102539 0.05706167221069336 6.751405239105225 -3.469447374343872 8.73300838470459 25.758604049682617 13.873717308044434 67.7232666015625 50.71564483642578 9.119593620300293 2.1614620685577393 -1.6996477842330933 -10.38561725616455 17.531356811523438 2.4306111335754395 26.30338478088379 36.61396026611328 -15.949126243591309 19.04330825805664 3.329775094985962 -1.494418740272522 42.354244232177734 -18.491439819335938 12.634256362915039 67.7116470336914 -5.590334892272949 18.325214385986328 29.74103355407715 36.68175506591797 -4.2617692947387695 -8.514265060424805 -6.041557788848877 7.742048263549805 -7.344544887542725 0.903550922870636 8.567523956298828 4.262025356292725 2.169684886932373 60.11556625366211 42.89826583862305 19.445262908935547 -5.706477642059326 12.454842567443848 43.21950149536133 31.28375244140625 54.71959686279297 41.75182342529297 37.5267219543457 58.827823638916016 21.304439544677734 10.213266372680664 1.2150745391845703 4.047414779663086 30.140836715698242 18.07189178466797 43.594383239746094 41.27386474609375 24.169614791870117 39.413536071777344
理解力/りかいりょく 50.513973236083984 50.07394027709961 15.770624160766602 4.932350158691406 45.78022384643555 7.393282413482666 82.66847229003906 6.4727067947387695 8.463129043579102 -8.956071853637695 21.64422607421875 2.827951192855835 1.5104016065597534 22.023887634277344 39.6965217590332 20.285175323486328 147.34149169921875 23.191835403442383 66.25142669677734 52.221614837646484 67.61286926269531 67.6747817993164 68.32168579101562 104.69612121582031 213.0986785888672 56.641056060791016 243.2962188720703 40.385345458984375 66.63356018066406 58.56233215332031 182.7261962890625 61.74320602416992 167.10227966308594 13.859779357910156 150.46780395507812 71.57484436035156 63.97734069824219 82.94683837890625 27.032941818237305 138.83193969726562 121.946044921875 120.42414093017578 51.753421783447266 35.58006286621094 99.3121337890625 74.03144836425781 96.09791564941406 66.70042419433594 96.3294906616211 120.03568267822266 194.00894165039062 22.258195877075195 104.89607238769531 135.1119384765625 159.81478881835938 93.03946685791016 106.1998062133789 15.418750762939453 2.7218728065490723 23.998796463012695 74.47573852539062 76.17056274414062 250.82168579101562 36.219085693359375 101.16236114501953 26.955608367919922 119.49844360351562 77.4314956665039 85.10297393798828 21.113178253173828 177.25523376464844 41.62346267700195 187.7933349609375 150.54942321777344 190.24046325683594 74.1225357055664 173.6012420654297 42.32940673828125 131.30096435546875 150.27244567871094
飲ん/のん 50.720664978027344 42.68988037109375 22.189138412475586 -0.2539968490600586 -3.422132730484009 15.255751609802246 100.10249328613281 2.4845688343048096 -5.009767055511475 -3.6430859565734863 -19.412527084350586 20.84044647216797 0.3663267195224762 42.112823486328125 -12.240370750427246 9.302477836608887 163.64593505859375 22.840232849121094 63.862674713134766 82.5638656616211 87.20365905761719 31.369709014892578 59.90652847290039 108.64573669433594 225.3904266357422 46.55667495727539 239.84805297851562 77.53894805908203 47.01233673095703 69.80046844482422 168.80128479003906 71.41284942626953 195.13290405273438 29.97428321838379 157.88900756835938 81.58890533447266 69.38394927978516 83.42241668701172 58.47513961791992 146.6198272705078 98.14353942871094 138.7980194091797 -37.52552795410156 -30.5028018951416 103.98880767822266 92.31884765625 83.32979583740234 144.31398010253906 77.25284576416016 145.445068359375 211.74041748046875 73.01691436767578 96.03189086914062 148.59584045410156 191.56448364257812 95.3279037475586 139.18362426757812 33.17042541503906 -24.986007690429688 16.530759811401367 59.70726776123047 85.927734375 245.86952209472656 -1.5590722560882568 78.42315673828125 12.631246566772461 50.265811920166016 49.26821517944336 58.5428352355957 71.19264221191406 180.04966735839844 34.89078140258789 230.55899047851562 109.45826721191406 190.78150939941406 68.2784652709961 119.09474182128906 62.311832427978516 90.01358795166016 114.64611053466797
読む -1.7502822875976562 -4.832884788513184 -0.6235402226448059 20.517822265625 7.339885234832764 24.597307205200195 -9.48917293548584 -8.421098709106445 -8.718286514282227 0.22156670689582825 -10.496429443359375 -7.383945941925049 -11.351922035217285 26.56952667236328 26.056236267089844 15.588911056518555 18.435422897338867 19.504858016967773 2.809274435043335 -17.14950180053711 1.2407748699188232 45.25859832763672 2.522928237915039 -6.649513244628906 -19.26628875732422 -22.041362762451172 -7.335517883300781 -7.069066047668457 77.12425994873047 27.268447875976562 -21.606769561767578 -2.0310850143432617 -12.194384574890137 -26.962263107299805 3.3402631282806396 -7.701409339904785 19.507732391357422 60.693817138671875 -26.33209228515625 9.351630210876465 10.824416160583496 18.024742126464844 -26.82969093322754 -15.04310417175293 2.6327970027923584 83.97267150878906 -6.232641220092773 -0.372050404548645 10.62081241607666 19.03251075744629 -9.946207046508789 -0.5906758308410645 11.734519958496094 -5.235529899597168 -7.33548641204834 -13.897521018981934 15.902889251708984 -4.57703971862793 -0.8652812838554382 54.9576416015625 4.7267632484436035 18.283733367919922 -3.5737507343292236 7.860300064086914 108.8277359008789 47.369876861572266 73.5534896850586 14.75887393951416 58.10588073730469 95.84453582763672 27.573856353759766 8.525992393493652 0.3489338755607605 0.3826161324977875 24.826953887939453 12.748029708862305 70.13798522949219 36.22702407836914 19.06122589111328 36.5164909362793
無く/なく 40.63349533081055 39.64409637451172 -10.101147651672363 -1.2366552352905273 0.09200861304998398 0.7702022790908813 83.4936294555664 -9.25295639038086 5.819830894470215 -5.042975425720215 -3.4115705490112305 -3.459341287612915 33.816795349121094 15.201587677001953 23.676992416381836 -6.634323596954346 138.05429077148438 11.68013858795166 64.78610229492188 57.96247100830078 72.08243560791016 74.311279296875 64.0972671508789 85.54666900634766 194.5259552001953 49.75510787963867 256.2087707519531 60.55508804321289 73.41747283935547 57.85518264770508 174.8817596435547 90.98518371582031 179.46104431152344 17.41558837890625 122.8441390991211 93.91170501708984 49.65266418457031 24.96616554260254 61.6565055847168 144.2047119140625 101.0105209350586 141.8058319091797 30.02619743347168 27.312156677246094 90.21805572509766 103.00345611572266 80.4408187866211 103.20946502685547 68.62330627441406 110.3913803100586 194.903564453125 42.01604461669922 97.55526733398438 162.10458374023438 160.33786010742188 80.38641357421875 147.641357421875 19.00728988647461 -41.11641311645508 19.371183395385742 68.31610107421875 68.98959350585938 255.70240783691406 1.9557827711105347 65.0695571899414 7.78761100769043 73.1368637084961 51.6605339050293 87.97236633300781 52.63943862915039 157.7946319580078 43.932090759277344 216.6347198486328 113.81460571289062 187.82200622558594 42.777889251708984 134.872314453125 57.961299896240234 123.80744934082031 99.63760375976562
迫る -7.5294060707092285 -6.5858330726623535 -12.302287101745605 -4.9851884841918945 -9.222579956054688 52.90019989013672 -7.950940132141113 -3.0554137229919434 28.3646240234375 10.923335075378418 6.47065544128418 4.427068710327148 11.321130752563477 22.710216522216797 0.213506281375885 -24.355741500854492 9.627758026123047 10.797065734863281 -3.3562533855438232 -12.861613273620605 55.32392883300781 52.93644332885742 -11.439889907836914 -6.2809038162231445 -8.98403549194336 -16.9305419921875 25.3625545501709 5.413080215454102 27.463424682617188 33.0567741394043 -16.600893020629883 -5.37626838684082 -0.28693878650665283 -16.04268455505371 -4.630181789398193 -13.514457702636719 23.959375381469727 68.51538848876953 -6.763407230377197 -11.739872932434082 14.625312805175781 -13.947065353393555 69.20814514160156 24.034114837646484 -5.636466026306152 62.81043243408203 -2.772611618041992 -1.8324891328811646 25.656957626342773 39.628700256347656 18.604263305664062 -7.588242530822754 8.552706718444824 9.804476737976074 4.229986667633057 -6.405858993530273 15.118982315063477 2.9437341690063477 -25.154571533203125 10.49794864654541 -6.246258735656738 23.753398895263672 -14.868145942687988 32.37804412841797 61.87186813354492 30.16025733947754 48.988033294677734 58.38996124267578 33.56142807006836 77.22945404052734 18.50204849243164 29.803997039794922 14.874412536621094 2.7851929664611816 54.3901481628418 36.626033782958984 36.90074920654297 58.489139556884766 17.109642028808594 51.13858413696289
持た -11.847704887390137 -3.6827523708343506 33.15817642211914 -5.422827243804932 -1.9851247072219849 -28.985544204711914 -9.811700820922852 -11.355395317077637 -15.824918746948242 -16.51750373840332 3.4089343547821045 2.8229501247406006 15.433431625366211 8.964698791503906 50.843692779541016 6.806727886199951 16.36821746826172 -1.2648226022720337 -15.298849105834961 -9.386161804199219 23.650287628173828 53.83036422729492 -14.368779182434082 -5.9709367752075195 -16.088748931884766 -7.6266937255859375 7.869637966156006 -7.0205397605896 64.39521026611328 46.15645217895508 -21.84162712097168 27.526004791259766 -8.660727500915527 -25.83672523498535 0.15994128584861755 -17.78124237060547 31.121204376220703 19.249671936035156 -9.678788185119629 -1.9186389446258545 9.323799133300781 -23.46628761291504 39.22463607788086 -27.484268188476562 16.995887756347656 63.43217849731445 -6.451295852661133 -9.231802940368652 37.16365432739258 59.21399688720703 -2.2536544799804688 3.907637357711792 -14.215570449829102 -19.40729522705078 -4.511438846588135 -21.801618576049805 16.882299423217773 -21.080184936523438 -17.960311889648438 20.399755477905273 17.203594207763672 19.811487197875977 -11.856895446777344 45.186729431152344 91.59537506103516 43.67410659790039 64.35489654541016 38.24882507324219 38.99197006225586 77.65159606933594 14.589838027954102 5.180107593536377 11.881189346313477 6.83352518081665 25.717220306396484 14.629105567932129 94.078125 75.9792251586914 17.38680076599121 36.89716339111328
楽しさ/たのしさ 28.045562744140625 49.10680389404297 14.678813934326172 4.409062385559082 4.269370079040527 6.115164756774902 80.97686767578125 2.0765907764434814 -6.142119407653809 46.02424621582031 49.73921203613281 1.0128206014633179 27.05202293395996 19.52582550048828 -10.530029296875 11.715771675109863 112.11725616455078 9.152527809143066 69.38127899169922 64.44039916992188 86.42324829101562 24.41681480407715 71.52713012695312 104.54681396484375 196.02777099609375 71.02877044677734 222.8292236328125 65.51082611083984 63.57977294921875 67.74639129638672 163.84161376953125 74.45657348632812 143.2230224609375 5.114757061004639 125.67411041259766 71.11649322509766 62.323951721191406 30.0286865234375 72.01710510253906 129.1037139892578 146.20762634277344 125.107421875 -9.664798736572266 -10.669010162353516 91.4504165649414 80.79551696777344 101.59105682373047 95.67533111572266 104.22394561767578 131.01107788085938 180.13323974609375 51.58332061767578 114.74479675292969 132.8887481689453 151.03334045410156 91.0504150390625 59.546875 14.472002983093262 9.62401008605957 28.486892700195312 84.59676361083984 60.69461441040039 247.76475524902344 44.44606399536133 121.25357055664062 18.029041290283203 44.30005645751953 65.85484313964844 81.1926040649414 52.24307632446289 146.55569458007812 5.941027641296387 195.51014709472656 153.3614959716797 214.7512664794922 80.02656555175781 136.23605346679688 33.92830276489258 158.4517059326172 157.54513549804688
始まら -0.5474502444267273 2.838632106781006 50.96083450317383 29.544235229492188 6.681381702423096 13.204724311828613 -8.340481758117676 27.573911666870117 11.324620246887207 1.8691116571426392 27.766372680664062 20.813356399536133 6.580787181854248 25.957599639892578 47.03428268432617 13.021060943603516 14.50798225402832 10.367462158203125 3.062650442123413 36.145774841308594 8.785982131958008 17.11616325378418 -20.78333854675293 -5.895390510559082 -4.331486225128174 1.0813053846359253 3.8683831691741943 6.948697566986084 100.26868438720703 16.482500076293945 -0.3672395348548889 7.2936015129089355 -9.495908737182617 -12.479412078857422 -2.7671072483062744 -0.27861106395721436 4.468331813812256 43.0329475402832 -6.538175582885742 7.469103813171387 0.16071268916130066 -2.183424234390259 17.048707962036133 21.687335968017578 2.532952070236206 73.9685287475586 2.803131103515625 2.285764694213867 9.250639915466309 27.676040649414062 14.091917037963867 0.6233466863632202 5.1591572761535645 -19.00001335144043 -9.282636642456055 28.07578468322754 12.78021240234375 14.981142044067383 -6.175881862640381 52.7789192199707 -9.77739429473877 37.90362548828125 1.0362226963043213 -1.249525785446167 67.42174530029297 26.719938278198242 69.49120330810547 53.63246536254883 46.222145080566406 69.76001739501953 17.95100212097168 23.384288787841797 3.0720276832580566 3.829357862472534 36.94374084472656 20.383386611938477 39.793087005615234 58.932682037353516 20.793533325195312 45.2464714050293
抵抗力/ていこうりょく 50.513973236083984 50.07394027709961 -1.959213376045227 10.347151756286621 36.21235275268555 -2.7162699699401855 82.66847229003906 0.08459053933620453 14.50836181640625 8.878095626831055 -8.609280586242676 15.307173728942871 1.5104016065597534 22.023887634277344 22.407352447509766 -11.05714225769043 151.97264099121094 23.191835403442383 70.81988525390625 65.22499084472656 73.78697204589844 67.6747817993164 63.05122375488281 93.6971206665039 209.37008666992188 78.34235382080078 250.37374877929688 45.369808197021484 66.63356018066406 41.099586486816406 182.55615234375 59.487205505371094 172.7660369873047 28.470869064331055 171.297119140625 64.7479248046875 51.69792938232422 82.94683837890625 38.08261489868164 167.71533203125 119.99197387695312 120.22050476074219 86.35967254638672 35.58006286621094 130.7958221435547 74.03144836425781 127.9227523803711 62.92643356323242 69.98357391357422 100.94004821777344 179.59361267089844 26.40692901611328 62.391143798828125 183.64169311523438 132.69384765625 109.8254165649414 107.9956283569336 10.722193717956543 -3.9183268547058105 27.48545265197754 91.70360565185547 44.59601593017578 252.71975708007812 28.149633407592773 102.07463073730469 11.556196212768555 88.1689224243164 68.8919906616211 77.7746353149414 24.6140193939209 178.25466918945312 71.34819030761719 164.17056274414062 168.45785522460938 182.16209411621094 81.28064727783203 124.84906005859375 140.52638244628906 118.97653198242188 124.15306854248047
面白い -4.568299293518066 1.0049599409103394 28.575576782226562 14.748764991760254 3.0339391231536865 0.34971946477890015 -9.147071838378906 6.104954719543457 32.25216293334961 15.611967086791992 17.546710968017578 29.09014129638672 27.9219970703125 15.916539192199707 12.620725631713867 2.6502292156219482 2.328537702560425 20.98966407775879 16.607051849365234 -2.296412706375122 15.219512939453125 35.27852249145508 -7.817107200622559 -1.256671667098999 -3.7129077911376953 -9.912959098815918 4.562332630157471 7.1199188232421875 69.72445678710938 51.1031608581543 1.4062960147857666 6.289444446563721 -2.8424530029296875 3.078517436981201 1.2044076919555664 4.502411842346191 26.937440872192383 32.35667419433594 -4.8864617347717285 8.127811431884766 19.36569595336914 12.665022850036621 51.82587814331055 9.119611740112305 9.80785083770752 88.6249008178711 5.7691650390625 0.39346981048583984 9.894762992858887 36.259647369384766 -9.29633617401123 10.848252296447754 18.050518035888672 23.089908599853516 -12.630335807800293 2.8954713344573975 0.7302662134170532 -5.977371692657471 3.4819116592407227 33.105533599853516 3.7118215560913086 13.998456001281738 10.63401985168457 19.613245010375977 40.830833435058594 24.645811080932617 101.96224212646484 35.77314758300781 25.802478790283203 33.684608459472656 18.768798828125 41.14155197143555 9.708444595336914 -1.374884009361267 34.22734832763672 9.452676773071289 52.29503631591797 78.22608184814453 23.724063873291016 25.872249603271484
閉める/しめる 50.502113342285156 45.49375534057617 2.264273166656494 -3.1737115383148193 8.47514533996582 77.7617416381836 97.64253234863281 -1.6006743907928467 6.609941482543945 28.36366844177246 10.825637817382812 -3.17586350440979 -5.833916187286377 22.710206985473633 27.888225555419922 4.910161972045898 152.48365783691406 17.751731872558594 55.803749084472656 54.026554107666016 70.80591583251953 26.697816848754883 67.17145538330078 95.8060531616211 203.41729736328125 41.7844352722168 255.94552612304688 55.15873336791992 20.740201950073242 57.927059173583984 180.2782440185547 61.226383209228516 187.2578582763672 9.865137100219727 149.80751037597656 46.994041442871094 52.325538635253906 95.15167999267578 58.816158294677734 141.14381408691406 136.6453094482422 154.7274627685547 10.58053207397461 18.689720153808594 62.50320816040039 67.21830749511719 86.86019134521484 103.74009704589844 96.04385375976562 122.13275909423828 239.86553955078125 36.191200256347656 132.76370239257812 143.83534240722656 153.62351989746094 63.95664596557617 111.93521118164062 11.817187309265137 -24.832508087158203 33.7448844909668 70.26880645751953 62.53898620605469 251.4506378173828 64.85838317871094 169.3999786376953 48.51091003417969 41.13945770263672 45.256065368652344 74.60092163085938 103.488037109375 167.1171875 46.18738555908203 201.3082733154297 153.3361053466797 184.86404418945312 99.74049377441406 108.48529052734375 109.65682220458984 143.70811462402344 201.9656982421875
多さ/おおさ 28.045557022094727 49.10683059692383 14.654122352600098 1.2354530096054077 36.379024505615234 -7.621554851531982 80.97685241699219 6.464130878448486 15.735623359680176 13.029364585876465 -14.102896690368652 6.020970821380615 -10.309087753295898 19.525821685791016 -4.121394157409668 13.705567359924316 141.67160034179688 7.656917572021484 62.19111251831055 62.9247932434082 89.78016662597656 31.063913345336914 38.62602233886719 100.73775482177734 200.5822296142578 71.01152038574219 216.55751037597656 68.60258483886719 34.869380950927734 70.00181579589844 171.76303100585938 76.8219985961914 171.65394592285156 27.527698516845703 127.00469970703125 63.59719467163086 21.94975471496582 100.07170104980469 49.23228073120117 155.7678680419922 122.66576385498047 175.90826416015625 33.905792236328125 -19.22866439819336 112.01506042480469 85.24169158935547 84.63603973388672 98.11493682861328 86.1080093383789 101.60796356201172 209.49693298339844 54.40309524536133 86.04010009765625 164.6160430908203 165.6064453125 14.393369674682617 80.63822174072266 7.491084098815918 26.830856323242188 45.08412551879883 87.24491119384766 87.60688781738281 246.28231811523438 47.31694412231445 176.44871520996094 24.57961082458496 58.24978256225586 80.17539978027344 74.8235092163086 110.84590911865234 175.01585388183594 5.414402961730957 190.78378295898438 120.14579010009766 197.9232635498047 70.13987731933594 199.77383422851562 116.38136291503906 167.4870147705078 111.95568084716797
持つ -11.847704887390137 -2.3559653759002686 33.15817642211914 -5.0176239013671875 18.911834716796875 -13.827117919921875 -11.116752624511719 -6.46497917175293 -15.824918746948242 -16.51750373840332 3.4089343547821045 0.7527836561203003 15.433431625366211 20.84679412841797 50.843692779541016 18.60599708557129 24.530561447143555 19.843791961669922 -10.119453430175781 -20.448894500732422 11.80925464630127 39.216896057128906 -17.002025604248047 -16.600431442260742 -25.129047393798828 1.16562819480896 8.546576499938965 -4.123744964599609 72.76611328125 71.29661560058594 -18.44603157043457 12.202483177185059 9.956393241882324 -12.807397842407227 -1.2144672870635986 8.184497833251953 17.27992820739746 30.32193946838379 -22.3643856048584 -6.072931289672852 -0.07504844665527344 -15.37110710144043 10.560314178466797 -29.078542709350586 4.593008995056152 53.94845962524414 -5.95944881439209 18.556114196777344 21.788558959960938 36.72087478637695 -12.86620044708252 0.11633385717868805 8.786571502685547 -10.631558418273926 -11.27247428894043 -17.598468780517578 30.977689743041992 -13.96799087524414 -9.748662948608398 71.2613754272461 -3.953171968460083 16.836416244506836 -8.494492530822754 31.64998435974121 66.24288177490234 66.22490692138672 50.45899200439453 35.888919830322266 52.662261962890625 78.49419403076172 13.639619827270508 29.548641204833984 0.5780656337738037 21.008895874023438 15.616561889648438 17.18766975402832 82.01834106445312 105.16938018798828 9.831396102905273 20.461956024169922
大群/たいぐん 47.436431884765625 48.1956787109375 -7.688847064971924 -0.25399768352508545 8.15140438079834 -1.612356424331665 87.5718765258789 17.47307014465332 15.809075355529785 -23.427871704101562 -12.223616600036621 1.0868518352508545 10.110694885253906 42.112831115722656 48.01848602294922 8.355478286743164 126.22615051269531 39.55101013183594 64.5831527709961 61.88601303100586 76.5977554321289 42.11896514892578 84.3963623046875 92.97186279296875 211.09463500976562 65.20262908935547 238.41012573242188 39.20346450805664 55.03959655761719 82.661376953125 155.561279296875 65.85270690917969 170.3610382080078 8.955070495605469 159.30421447753906 75.88621520996094 88.84925842285156 48.039939880371094 47.507415771484375 160.4318389892578 151.0579833984375 98.20835876464844 -13.338459968566895 -24.934831619262695 108.51517486572266 89.42405700683594 89.23101806640625 103.55492401123047 85.34131622314453 108.1671371459961 195.88328552246094 22.839372634887695 109.49876403808594 157.12103271484375 142.9149169921875 86.58014678955078 91.3125228881836 16.950149536132812 -18.120193481445312 10.501836776733398 71.9644546508789 30.27962875366211 235.7549285888672 13.939325332641602 88.77559661865234 34.2471923828125 58.66514205932617 58.52251052856445 89.67616271972656 64.68040466308594 150.7401580810547 37.45497131347656 183.50497436523438 116.27008056640625 195.58094787597656 101.11707305908203 159.5575714111328 103.3066177368164 96.52481842041016 137.2662811279297
不信感/ふしんかん 32.6435661315918 53.21223831176758 15.606878280639648 3.9619359970092773 44.99567794799805 30.011850357055664 97.21751403808594 1.4431877136230469 -3.5282609462738037 22.12164306640625 -8.935279846191406 -9.834978103637695 11.408023834228516 42.112789154052734 48.027713775634766 -2.937077045440674 138.16310119628906 30.130735397338867 96.77983093261719 67.15508270263672 27.60309600830078 86.9176254272461 40.37664794921875 94.37798309326172 209.43443298339844 67.65743255615234 234.74046325683594 35.972816467285156 90.15798950195312 81.0809555053711 165.20938110351562 60.63661193847656 160.11199951171875 32.21642303466797 146.60671997070312 74.54906463623047 53.333587646484375 78.30400085449219 49.5499382019043 162.41249084472656 114.96315002441406 157.40682983398438 22.514179229736328 4.83931303024292 84.9686050415039 53.447776794433594 79.42674255371094 63.09783935546875 73.94568634033203 126.06141662597656 191.2166748046875 50.698604583740234 131.69642639160156 141.0334930419922 159.20518493652344 69.11577606201172 70.30084228515625 43.9859619140625 1.7859125137329102 47.07952117919922 90.6949691772461 132.99725341796875 250.50692749023438 30.265579223632812 85.2164077758789 100.28852844238281 64.72462463378906 88.05729675292969 121.18374633789062 77.61200714111328 202.15606689453125 33.1502685546875 213.2444610595703 142.4442138671875 228.76881408691406 137.90403747558594 198.7938995361328 28.460159301757812 103.61201477050781 192.6944122314453
行お -4.87354850769043 10.618441581726074 -33.48601150512695 7.177158355712891 53.16658401489258 -13.866768836975098 -13.592772483825684 7.446085453033447 46.30453109741211 15.513969421386719 5.041257381439209 -0.4043530821800232 4.093682289123535 3.3402035236358643 46.9837646484375 2.6205904483795166 8.022209167480469 11.966782569885254 -14.725462913513184 11.900351524353027 -7.823890686035156 56.73674392700195 34.00031280517578 -0.37191641330718994 -26.778831481933594 -8.417588233947754 9.231410026550293 4.09834098815918 39.56232452392578 51.88108444213867 -7.202780246734619 7.666322708129883 -10.961061477661133 -19.855499267578125 -13.288527488708496 -7.490221977233887 9.885043144226074 48.0091667175293 4.249303817749023 2.8640294075012207 54.55385208129883 13.85632038116455 34.50525665283203 0.612500786781311 28.679218292236328 51.22050094604492 10.74755573272705 -8.516739845275879 2.85834002494812 27.213909149169922 -4.363572120666504 -1.0704712867736816 38.83152770996094 -4.273939609527588 -12.585943222045898 0.07449303567409515 3.625762701034546 -6.049328804016113 -12.437932968139648 29.335121154785156 -6.421082973480225 21.914894104003906 -3.833406925201416 40.08489990234375 82.31583404541016 29.105224609375 45.06278991699219 39.79499816894531 48.39655303955078 40.2408561706543 19.85993194580078 11.89360237121582 14.889792442321777 9.634056091308594 23.262344360351562 10.68274211883545 92.0394287109375 38.6889762878418 19.052719116210938 49.56383514404297
長期 -11.403400421142578 -1.796035885810852 42.45338439941406 2.9398601055145264 -7.325129985809326 26.81683349609375 9.638099670410156 -0.5631681680679321 -3.1993374824523926 -20.844131469726562 21.18954086303711 -7.191849231719971 7.066020965576172 13.104243278503418 -19.92555809020996 22.19269371032715 -17.727304458618164 26.598283767700195 -2.817993640899658 0.2849613428115845 -3.8540074825286865 48.85197830200195 -10.823508262634277 -2.5032103061676025 -22.826515197753906 -0.6488547921180725 1.6733512878417969 5.970175266265869 65.97002410888672 38.355316162109375 -12.329970359802246 -2.8643856048583984 -16.67688751220703 -19.261634826660156 -9.436580657958984 0.9852186441421509 41.27962875366211 48.396358489990234 -14.315929412841797 -15.593950271606445 10.241656303405762 0.01851963996887207 58.85309982299805 18.319419860839844 3.1727521419525146 66.94043731689453 -0.550962507724762 0.5767337083816528 16.79387092590332 18.953121185302734 -12.962420463562012 -11.152358055114746 9.615921974182129 -6.328068256378174 -19.5147762298584 -11.712013244628906 -3.0943071842193604 -16.74152374267578 -8.02778148651123 11.268497467041016 -8.076515197753906 21.881532669067383 -12.723528861999512 22.15555763244629 73.02753448486328 27.175090789794922 48.77433395385742 19.199487686157227 38.890052795410156 84.02543640136719 22.64643096923828 5.731845378875732 2.383357286453247 2.7527618408203125 43.02710723876953 12.992705345153809 54.216365814208984 33.92628479003906 16.775245666503906 25.516738891601562
記憶 -2.7987709045410156 2.487352132797241 7.174633502960205 7.697136878967285 6.5860371589660645 4.750973701477051 5.240861892700195 2.711613655090332 7.282463073730469 -3.6475558280944824 28.053396224975586 2.489727258682251 15.555028915405273 28.978296279907227 -1.5978467464447021 11.942509651184082 -0.5717188119888306 24.85611343383789 -7.631258964538574 -1.3469780683517456 2.891836166381836 39.856258392333984 -10.73827838897705 -14.24441909790039 -20.13236427307129 -4.503299236297607 8.880082130432129 0.32308781147003174 60.82065963745117 49.199424743652344 -0.8569247126579285 4.845053195953369 -18.35745620727539 -6.874039173126221 -10.017390251159668 -9.119682312011719 32.531639099121094 50.05986022949219 -13.601996421813965 -11.175710678100586 9.402929306030273 2.722662925720215 40.566898345947266 27.80443572998047 2.206758975982666 69.97191619873047 -8.631928443908691 6.117381572723389 2.31208872795105 21.900724411010742 2.747643232345581 -2.4029622077941895 15.672574043273926 -14.369538307189941 -9.498446464538574 -7.196107864379883 10.154412269592285 -2.573253631591797 2.042340040206909 26.968433380126953 -8.83357048034668 25.200942993164062 -7.201375961303711 20.59479331970215 72.64669799804688 34.15336608886719 53.179229736328125 16.12866973876953 28.338197708129883 59.89374542236328 21.586185455322266 11.530856132507324 4.349609375 6.938150405883789 14.635160446166992 6.621732711791992 77.08657836914062 56.02555847167969 13.241853713989258 34.06184005737305
食べよ/たべよ 58.540592193603516 56.91346740722656 18.23920440673828 19.52407455444336 -4.054633140563965 -4.281796455383301 99.97792053222656 -4.929853439331055 11.796630859375 14.444836616516113 32.494178771972656 26.04500389099121 8.071589469909668 19.17081069946289 4.531353950500488 17.652069091796875 164.1891632080078 17.943490982055664 73.16783142089844 62.449031829833984 77.64501953125 40.55038833618164 66.7039566040039 95.20278930664062 207.92648315429688 79.39539337158203 247.35740661621094 53.61213302612305 64.1498794555664 64.59929656982422 170.71810913085938 79.27100372314453 165.1476287841797 7.800750732421875 165.53453063964844 85.91380310058594 78.82147979736328 53.262916564941406 64.48120880126953 141.55877685546875 127.33948516845703 104.97187805175781 41.01120376586914 -9.231735229492188 116.8525390625 83.38378143310547 115.67491912841797 112.04495239257812 95.74712371826172 145.06344604492188 188.24049377441406 43.83740997314453 105.98381805419922 137.50177001953125 150.91993713378906 67.42070007324219 98.1734619140625 33.554595947265625 6.382583141326904 22.6474666595459 96.12883758544922 69.65210723876953 267.6350402832031 12.05245590209961 173.6055450439453 23.811111450195312 45.473331451416016 62.10404968261719 62.18906021118164 75.12712097167969 132.90855407714844 38.99119186401367 206.4848175048828 163.3252716064453 186.49850463867188 92.5636978149414 146.6235809326172 63.45096206665039 163.7541046142578 141.5987091064453
嫌悪感/けんおかん 32.6435661315918 53.21223831176758 -2.01406192779541 11.393101692199707 44.99567794799805 24.50705337524414 97.21751403808594 10.234593391418457 18.563983917236328 -10.176031112670898 2.4307620525360107 -5.048480033874512 20.52751922607422 42.112789154052734 2.1325302124023438 11.007675170898438 119.71346282958984 30.130735397338867 83.80790710449219 83.8726577758789 61.73018264770508 86.9176254272461 64.49405670166016 100.33232116699219 213.91766357421875 62.03413772583008 241.7699432373047 26.92523956298828 90.15798950195312 48.904720306396484 162.5896453857422 70.31807708740234 173.9815216064453 18.344614028930664 136.67657470703125 68.2520523071289 72.83773803710938 78.40217590332031 51.3044319152832 156.90435791015625 109.65689849853516 127.04581451416016 18.28178596496582 3.4488236904144287 58.072200775146484 53.447776794433594 96.21568298339844 111.22087097167969 62.444984436035156 125.95543670654297 210.42800903320312 73.33097839355469 110.5970230102539 129.5779571533203 173.53404235839844 97.855224609375 114.19256591796875 32.8664665222168 -19.00213050842285 29.297943115234375 81.2125244140625 45.35685729980469 277.4352722167969 48.94870376586914 120.24046325683594 39.447723388671875 64.72462463378906 115.33343505859375 58.68203353881836 77.61200714111328 191.8209228515625 40.09626388549805 179.89549255371094 170.47108459472656 190.220458984375 73.2655258178711 123.94071197509766 63.139644622802734 78.37397766113281 144.09243774414062
抜か/ぬか 41.20897674560547 41.65327072143555 -11.135828018188477 21.575855255126953 39.130958557128906 28.9791259765625 84.3130111694336 -6.507845878601074 4.188373565673828 2.3236570358276367 36.386451721191406 -15.679255485534668 19.120134353637695 7.555922985076904 2.746265172958374 10.141274452209473 145.2217559814453 10.002768516540527 59.54611587524414 57.479957580566406 67.21329498291016 30.285118103027344 56.91417694091797 110.90655517578125 228.583984375 63.714603424072266 245.26986694335938 46.42890930175781 59.00130081176758 38.05181884765625 163.7529754638672 51.36310577392578 162.67652893066406 18.506546020507812 144.12794494628906 105.63228607177734 68.4946060180664 57.142616271972656 36.84786605834961 163.45614624023438 125.9488525390625 125.61820983886719 33.16416931152344 41.860347747802734 100.57192993164062 65.62293243408203 88.17172241210938 91.5989761352539 89.65660858154297 114.0538330078125 181.6992950439453 29.70418930053711 106.25164794921875 127.98995208740234 143.8440399169922 89.86979675292969 91.44001770019531 25.70688247680664 -33.71990966796875 52.17865753173828 98.48468780517578 90.6478271484375 253.8953857421875 22.97222900390625 82.7770004272461 24.289161682128906 76.1847915649414 32.89373779296875 89.06572723388672 47.855857849121094 185.23959350585938 62.82350158691406 188.14669799804688 116.72716522216797 180.62998962402344 53.363487243652344 175.08560180664062 57.92041015625 115.26625061035156 137.59104919433594
長かっ/ながかっ 39.10829162597656 54.83561706542969 42.45337677001953 13.411823272705078 63.26661682128906 29.56663703918457 88.92793273925781 -6.525190353393555 -3.1993322372436523 -6.832563400268555 21.189523696899414 -3.4593427181243896 7.0660223960876465 16.457693099975586 -19.925552368164062 22.192699432373047 180.8542022705078 44.7704963684082 54.259212493896484 73.3545913696289 56.89316940307617 121.40971374511719 84.36476135253906 141.15467834472656 210.7029571533203 44.667198181152344 242.2784423828125 56.16257095336914 131.55343627929688 35.05156326293945 175.4109344482422 93.88166809082031 186.82742309570312 21.856801986694336 141.03611755371094 69.30238342285156 37.99971008300781 115.50659942626953 41.65834045410156 140.10299682617188 135.13973999023438 149.5838623046875 62.756744384765625 -19.04431915283203 72.42713165283203 51.03225326538086 131.4237060546875 104.04472351074219 121.21504974365234 214.81410217285156 176.2523193359375 53.13618850708008 158.300048828125 85.43511962890625 124.75180053710938 63.43111038208008 84.38729095458984 16.44110107421875 -26.073793411254883 30.1270751953125 82.75204467773438 89.32908630371094 245.86778259277344 48.82084655761719 103.47261047363281 68.17294311523438 46.202789306640625 100.73865509033203 72.11141204833984 134.8326416015625 138.92005920410156 15.126208305358887 182.6782989501953 176.6320037841797 207.37635803222656 184.931884765625 146.07000732421875 39.26686096191406 148.18722534179688 130.3894805908203
確実性/かくじつせい 55.7708854675293 46.258907318115234 17.652517318725586 28.044940948486328 44.73331069946289 20.15329360961914 76.26929473876953 6.104953765869141 -13.603310585021973 17.697999954223633 -7.346841812133789 -0.3992457389831543 14.835354804992676 13.821863174438477 20.489688873291016 8.644622802734375 141.361328125 16.107067108154297 60.362548828125 85.85084533691406 71.59479522705078 123.05644226074219 65.84578704833984 118.95114135742188 187.70037841796875 66.57500457763672 254.66680908203125 28.94154167175293 72.07209777832031 37.001258850097656 165.59791564941406 66.3565673828125 193.61880493164062 19.87228775024414 163.55584716796875 73.9978256225586 48.10675811767578 79.25128173828125 64.47251892089844 141.7532501220703 122.47676086425781 171.45480346679688 60.392555236816406 44.14100646972656 38.00294876098633 124.28640747070312 211.87884521484375 96.73655700683594 107.51287078857422 102.01774597167969 227.70263671875 38.48563766479492 125.41159057617188 187.82916259765625 196.43917846679688 79.29373931884766 159.44131469726562 36.22235870361328 -15.382052421569824 17.78329086303711 65.73661804199219 59.133331298828125 256.7965393066406 31.273929595947266 85.34735870361328 63.75385284423828 112.79005432128906 78.99036407470703 52.98324203491211 54.80175018310547 165.25462341308594 44.552513122558594 215.33851623535156 149.96730041503906 220.93560791015625 60.835205078125 172.9165496826172 103.29335021972656 71.72855377197266 86.26866149902344
住め -7.516645431518555 -6.093204975128174 -12.516170501708984 14.607087135314941 11.27606201171875 33.17438888549805 -6.546130180358887 -11.172236442565918 2.5045392513275146 18.913545608520508 -15.618971824645996 -11.423479080200195 4.296091079711914 22.521459579467773 19.339584350585938 -2.7673537731170654 -13.425870895385742 6.68716287612915 -3.319334030151367 -7.260423183441162 -10.601365089416504 33.01173400878906 0.2053731381893158 3.0903918743133545 6.409029006958008 -11.766340255737305 17.95648956298828 8.452934265136719 79.54512023925781 79.55181121826172 -1.7805490493774414 9.359735488891602 -19.508249282836914 -11.250839233398438 -4.804805278778076 -3.8509199619293213 24.400903701782227 73.26618957519531 -13.024626731872559 -18.184602737426758 27.698461532592773 5.395602703094482 -15.391648292541504 19.593109130859375 17.340883255004883 63.990440368652344 -12.124563217163086 4.260318756103516 15.261348724365234 24.73548126220703 -0.278342604637146 -9.786603927612305 -4.045290470123291 -7.858593940734863 -1.3613518476486206 -7.310280799865723 2.7170865535736084 -4.115364074707031 -30.6151180267334 27.99956512451172 -14.83320140838623 36.17214584350586 -9.308663368225098 9.826192855834961 56.116722106933594 35.17340850830078 63.302818298339844 17.55803108215332 40.53940200805664 61.2548713684082 19.097822189331055 1.4262741804122925 14.404025077819824 8.199350357055664 25.18785858154297 17.246173858642578 71.53865814208984 48.212764739990234 22.2413387298584 30.918676376342773
追お -3.8779475688934326 1.5626024007797241 46.9862174987793 7.177158355712891 45.264713287353516 -14.64539909362793 -11.769747734069824 -7.407678127288818 0.7143824100494385 26.79754638671875 34.15470886230469 -7.774419784545898 32.26824951171875 3.3402035236358643 46.19489669799805 -2.5051958560943604 -0.728831946849823 13.807280540466309 -13.088655471801758 -5.921749114990234 -19.837146759033203 53.41696548461914 12.260784149169922 -9.99323844909668 -12.299514770507812 2.8285164833068848 13.253520011901855 10.057150840759277 45.969520568847656 33.94780731201172 -9.114908218383789 22.524173736572266 -8.75924015045166 -15.893692016601562 -1.593387484550476 -10.551840782165527 17.965007781982422 42.22346878051758 0.6181667447090149 5.078985214233398 24.269588470458984 9.273072242736816 42.83787536621094 11.055221557617188 12.685256004333496 64.7788314819336 -0.7261059284210205 -2.477660894393921 10.250589370727539 34.06843185424805 -0.771725594997406 1.538874864578247 28.164085388183594 -1.2591538429260254 -11.2080717086792 -5.521247386932373 7.4612836837768555 -11.854808807373047 -16.2841796875 27.986486434936523 9.266992568969727 28.499265670776367 5.305457592010498 31.787363052368164 78.82051849365234 28.424829483032227 42.11823272705078 42.812950134277344 46.44694519042969 47.37051010131836 19.03214454650879 13.51446533203125 2.718214750289917 12.88113021850586 16.625120162963867 24.19367027282715 70.43739318847656 28.56980323791504 7.340524196624756 44.59751892089844
不安 4.5347490310668945 1.699999451637268 -17.320587158203125 -4.546645164489746 5.664414405822754 2.5270955562591553 -5.656712532043457 -2.2901508808135986 -3.5282599925994873 -14.594761848449707 38.26547622680664 -10.840475082397461 9.068918228149414 30.21673583984375 30.229753494262695 1.601804494857788 10.610346794128418 17.627601623535156 -13.565719604492188 13.424688339233398 -11.44723129272461 25.115875244140625 -6.113734722137451 -10.592068672180176 -25.12112808227539 -4.1280670166015625 -13.162818908691406 2.7942535877227783 69.0573959350586 71.37346649169922 -17.183433532714844 2.934448003768921 -12.535439491271973 -8.085335731506348 -5.019245624542236 -8.704349517822266 29.93620491027832 53.466251373291016 -18.84575653076172 13.454249382019043 4.4394683837890625 -0.6784506440162659 57.233219146728516 0.05065218359231949 37.04522705078125 59.06097412109375 -1.2206045389175415 -12.513416290283203 15.83674430847168 17.924823760986328 3.402721643447876 3.3913986682891846 9.637664794921875 -17.87313461303711 -14.22258186340332 -10.211990356445312 13.553688049316406 -8.438072204589844 -2.579082489013672 4.925256729125977 -3.4896841049194336 22.535526275634766 -7.77989387512207 10.933509826660156 72.99394226074219 31.71013069152832 48.72573471069336 37.34211349487305 30.32745933532715 40.48735427856445 12.536035537719727 43.53582763671875 -1.4579505920410156 9.169991493225098 24.73116683959961 26.98174285888672 81.74026489257812 48.376373291015625 11.733977317810059 23.825366973876953
演技力/えんぎりょく 50.513973236083984 50.07394027709961 16.865501403808594 10.521242141723633 36.21235275268555 12.143449783325195 82.66847229003906 4.813534736633301 0.04384279251098633 6.481322288513184 2.8387746810913086 -5.551150321960449 1.5104016065597534 22.023887634277344 3.797147750854492 -4.195102691650391 162.8018035888672 23.191835403442383 66.07843017578125 88.8163833618164 79.83052062988281 67.6747817993164 64.29257202148438 103.59017944335938 229.0597381591797 66.50376892089844 246.04656982421875 50.7810173034668 66.63356018066406 48.45553970336914 172.96237182617188 72.51814270019531 194.0764923095703 16.827728271484375 169.5072784423828 82.33673095703125 74.39959716796875 82.94683837890625 51.40171813964844 146.9805450439453 117.25076293945312 134.79403686523438 -11.899288177490234 35.58006286621094 92.57154846191406 74.03144836425781 103.78107452392578 124.47783660888672 95.74044036865234 117.8460464477539 221.20472717285156 60.487308502197266 84.34469604492188 135.25079345703125 197.3078155517578 89.96013641357422 133.9890899658203 10.722193717956543 -17.42394256591797 24.68217658996582 86.60763549804688 70.3034896850586 237.7679901123047 30.819307327270508 95.72882080078125 17.247575759887695 87.85660552978516 27.823776245117188 88.21245574951172 31.711912155151367 193.4672393798828 31.192440032958984 220.40390014648438 157.6283416748047 198.48753356933594 63.88762283325195 125.85475158691406 44.75366973876953 119.37007904052734 136.89889526367188
馬 -10.332419395446777 0.25555193424224854 -16.19429588317871 1.6764558553695679 -2.6808319091796875 -20.491230010986328 -9.079869270324707 -12.046692848205566 14.065811157226562 -9.82436752319336 5.674612998962402 -11.735459327697754 9.707718849182129 20.4593448638916 3.7613511085510254 0.7226284146308899 -5.85581636428833 3.735361099243164 -20.620330810546875 -29.97272491455078 -13.759143829345703 43.05332565307617 -29.47907066345215 -20.595666885375977 -40.29060745239258 -13.673673629760742 -3.9499101638793945 -5.099157810211182 63.14392852783203 46.51081466674805 -25.160518646240234 -0.11682246625423431 -16.59375762939453 -6.558686256408691 -14.855755805969238 7.484922409057617 23.88077163696289 36.95928955078125 -21.720203399658203 1.29647958278656 14.88779067993164 -18.917814254760742 21.484100341796875 -15.416238784790039 7.9778361320495605 51.62871170043945 9.41046142578125 4.655947685241699 0.6171080470085144 33.14540100097656 -4.7307915687561035 -12.640080451965332 -6.442002773284912 -15.935383796691895 -14.566088676452637 -0.0880761444568634 10.170719146728516 -4.20367956161499 -26.099300384521484 -1.440479040145874 -7.818147659301758 36.1392936706543 -15.574966430664062 18.783763885498047 71.86097717285156 23.188295364379883 34.3896598815918 22.2540225982666 23.09038734436035 61.766700744628906 26.11904525756836 6.441181659698486 -1.2226098775863647 3.9847819805145264 39.31633377075195 14.816091537475586 31.912731170654297 27.249067306518555 3.7823259830474854 12.505359649658203
映画 -5.902088642120361 -3.193068265914917 29.029335021972656 6.580777645111084 7.347046852111816 -16.22553825378418 -5.169029712677002 7.804157733917236 4.515995025634766 -8.901800155639648 -1.0358766317367554 6.502938270568848 10.364728927612305 27.67751121520996 14.160809516906738 -5.667214870452881 -3.0245842933654785 26.376243591308594 -10.849504470825195 -14.295563697814941 9.076897621154785 43.68930435180664 -10.057361602783203 -4.706416606903076 -2.0473358631134033 -1.7997835874557495 2.116551160812378 0.11037912964820862 67.77142333984375 39.41272735595703 -12.257974624633789 3.106801748275757 -8.615877151489258 -11.987142562866211 -14.711718559265137 1.5205442905426025 35.356292724609375 53.82956314086914 -13.870895385742188 -1.0482213497161865 -4.73588752746582 3.2716281414031982 63.44037628173828 2.4764559268951416 16.249956130981445 62.9037971496582 -1.1241637468338013 -0.9151332974433899 16.337574005126953 23.88204574584961 3.9440906047821045 -4.426184177398682 1.256293773651123 -5.627198219299316 -12.5361967086792 -7.728204727172852 16.216365814208984 -8.919204711914062 -4.755415439605713 27.773468017578125 -4.0616374015808105 23.097461700439453 -3.0339434146881104 22.20318031311035 86.35733795166016 38.06861877441406 52.889408111572266 41.630897521972656 26.943334579467773 84.08829498291016 13.67699909210205 1.8793450593948364 8.270455360412598 1.0397677421569824 17.10563087463379 4.4694414138793945 53.9333610534668 50.714500427246094 14.631037712097168 42.00470733642578
弱い -5.8181538581848145 -4.13217830657959 8.340987205505371 21.382389068603516 -1.453908085823059 1.8129465579986572 -8.111458778381348 6.104954719543457 7.063013553619385 13.595200538635254 7.883894443511963 1.4991101026535034 7.326956748962402 13.821864128112793 6.542338848114014 -8.072608947753906 -5.4518585205078125 8.135625839233398 16.442188262939453 3.950547695159912 14.064075469970703 47.16658401489258 -15.056689262390137 9.91212272644043 -18.531291961669922 -8.992347717285156 8.067952156066895 1.5255072116851807 70.38728332519531 70.66104888916016 9.747356414794922 12.62175464630127 -7.743095397949219 -11.083127975463867 0.5113258361816406 -17.050321578979492 39.93272018432617 46.8997688293457 -22.8089599609375 -8.142199516296387 34.05535125732422 -5.882201194763184 55.3104248046875 11.87424087524414 1.6285388469696045 92.55656433105469 7.362273216247559 12.276272773742676 15.008238792419434 39.10444641113281 -12.305374145507812 10.83480453491211 -5.748894691467285 13.012969970703125 -21.968412399291992 -6.377340793609619 6.7150959968566895 -11.625463485717773 -30.0361270904541 37.5133171081543 -6.150177955627441 30.85359764099121 12.647093772888184 14.841151237487793 42.99848556518555 25.814411163330078 106.26237487792969 39.19121170043945 16.191381454467773 47.12033462524414 13.266493797302246 43.243865966796875 2.536494255065918 6.853325843811035 15.477322578430176 21.754362106323242 88.96253967285156 65.48238372802734 26.161848068237305 27.80911636352539
図る -7.525745868682861 3.573376417160034 -10.935632705688477 -12.564781188964844 -1.825613021850586 16.355886459350586 -14.966660499572754 20.42727279663086 10.568256378173828 -5.145096302032471 20.0394287109375 0.4654694199562073 -21.130475997924805 22.710216522216797 46.701683044433594 -9.590377807617188 4.86549186706543 5.7537994384765625 -8.544771194458008 -19.254863739013672 57.012569427490234 52.79256820678711 -10.819940567016602 -23.41147804260254 2.385023832321167 -20.29413414001465 38.627342224121094 5.427912712097168 12.091680526733398 46.370269775390625 -11.616233825683594 1.1189359426498413 5.368037700653076 -4.3336920738220215 -7.507028579711914 -22.040184020996094 21.138721466064453 47.54908752441406 -17.34600067138672 5.57399845123291 14.140015602111816 -0.5773966908454895 17.040210723876953 8.076440811157227 -11.99733829498291 69.02046966552734 0.11994671821594238 6.508752822875977 36.196720123291016 31.07195281982422 11.5090970993042 -19.22116470336914 -6.426371097564697 9.807333946228027 3.256582498550415 -0.40123435854911804 29.938575744628906 -17.029937744140625 -20.06341552734375 4.230374813079834 6.505125045776367 18.47407341003418 -18.260578155517578 47.13314437866211 83.31019592285156 33.07231903076172 28.592679977416992 59.29790115356445 52.44127655029297 75.85635375976562 1.634195327758789 31.334396362304688 5.148380279541016 6.54446268081665 75.23886108398438 48.266571044921875 46.921146392822266 62.15143585205078 39.294334411621094 55.689701080322266
記憶力/きおくりょく 50.513973236083984 50.07394027709961 7.1746344566345215 0.7957653999328613 49.80788040161133 12.859277725219727 82.66847229003906 3.1199307441711426 7.282461166381836 -3.647552490234375 28.053375244140625 2.4897427558898926 15.555024147033691 22.023887634277344 -1.5978487730026245 11.942508697509766 149.25051879882812 44.25320816040039 63.53801345825195 80.4234619140625 35.527610778808594 67.6747817993164 60.55295181274414 101.5135269165039 211.97064208984375 67.81169891357422 246.22760009765625 22.561569213867188 66.63356018066406 49.199398040771484 189.5258331298828 60.885128021240234 199.24581909179688 16.158573150634766 169.85311889648438 46.685264587402344 48.29003143310547 129.20069885253906 73.16105651855469 149.35633850097656 125.8953628540039 182.39060974121094 40.5669059753418 35.58006286621094 99.50027465820312 74.03144836425781 105.79306030273438 70.40225982666016 87.81427001953125 118.6017074584961 223.64556884765625 49.49727249145508 76.40187072753906 176.3935546875 184.35943603515625 83.31719207763672 115.26533508300781 36.458778381347656 2.0423386096954346 26.968425750732422 87.9512939453125 56.41607666015625 245.09014892578125 31.67862319946289 109.44265747070312 22.805204391479492 91.49436950683594 46.25300598144531 78.62921142578125 31.574838638305664 183.32058715820312 42.55350875854492 206.98826599121094 152.2512969970703 184.1705322265625 86.23128509521484 147.2391357421875 30.542564392089844 119.8595199584961 114.73394012451172
商品 -15.104286193847656 -6.025518894195557 -10.233731269836426 8.69465160369873 0.584095299243927 -12.419902801513672 -6.54057502746582 -4.942221641540527 15.99273681640625 3.5962629318237305 10.820635795593262 -7.3713555335998535 8.834507942199707 35.985450744628906 1.504989504814148 4.736508369445801 2.0600645542144775 27.06142234802246 -14.74514389038086 -3.1618423461914062 6.449384689331055 19.38869285583496 -14.135064125061035 -2.7542126178741455 -18.967851638793945 -13.43147087097168 -7.79309606552124 -1.1417449712753296 69.80767059326172 60.07789611816406 -15.683024406433105 -2.483856201171875 -16.50409698486328 -3.7239208221435547 -9.31595230102539 2.181130886077881 29.38066291809082 42.396446228027344 -11.7103271484375 -5.834555149078369 2.6428277492523193 0.47529762983322144 -8.401305198669434 -29.476877212524414 4.647828102111816 78.90361785888672 -7.822885513305664 -2.4712469577789307 5.670019626617432 19.487133026123047 -4.448793411254883 -4.450531005859375 4.045542240142822 -15.320058822631836 -10.629034996032715 -18.855480194091797 -0.8399653434753418 -10.176136016845703 -7.229613780975342 13.133923530578613 -2.353318214416504 19.2723388671875 -15.063034057617188 17.30062484741211 75.49083709716797 26.065074920654297 50.202186584472656 23.73324203491211 30.36722183227539 48.980079650878906 31.09027862548828 2.382404088973999 4.724774360656738 -2.1153643131256104 13.507918357849121 19.45486831665039 74.98450469970703 68.4437484741211 8.089879989624023 24.345701217651367
使命 1.9935963153839111 1.7996890544891357 9.249616622924805 15.031495094299316 2.035942792892456 -10.070798873901367 1.6823371648788452 2.9789326190948486 15.11190414428711 15.507159233093262 41.47898864746094 33.28292465209961 29.625715255737305 27.17775535583496 4.50326681137085 28.40829086303711 -0.7399418950080872 11.513053894042969 -19.08632469177246 6.2739667892456055 10.017165184020996 39.3822021484375 -13.344636917114258 -1.2012161016464233 -28.69816780090332 -4.422567367553711 2.142052173614502 -0.1166723445057869 80.02971649169922 44.28830337524414 -17.18324851989746 1.735755205154419 -12.71010971069336 -15.389801979064941 -15.001688957214355 -6.866690158843994 50.19530487060547 39.65005111694336 -14.431161880493164 7.827820777893066 6.700405120849609 11.384782791137695 77.49217987060547 37.019683837890625 5.51082706451416 68.4555435180664 -5.519974231719971 -7.131400108337402 9.415461540222168 17.569019317626953 -8.284074783325195 -9.491314888000488 1.9034761190414429 -8.33864974975586 -17.08688735961914 -15.309481620788574 6.3209614753723145 -8.996384620666504 -8.646101951599121 38.70450210571289 -14.090987205505371 23.986469268798828 -4.780073642730713 32.336177825927734 80.10478210449219 27.782894134521484 44.644554138183594 25.14106559753418 44.353973388671875 71.71349334716797 17.21832847595215 15.959383964538574 6.628805637359619 0.59745854139328 19.621089935302734 16.625146865844727 75.54097747802734 53.84346389770508 20.65383529663086 33.468204498291016
統一性/とういつせい 55.7708854675293 46.258907318115234 33.57477569580078 32.44947052001953 13.483678817749023 20.15329360961914 76.26929473876953 11.278213500976562 6.765049457550049 2.8028299808502197 -5.11873722076416 -5.470826148986816 2.388352870941162 13.821863174438477 11.692420959472656 0.7841062545776367 137.53118896484375 16.107067108154297 61.82802200317383 53.96870803833008 81.8680419921875 46.895790100097656 56.660499572753906 118.70569610595703 219.5283203125 66.1015396118164 251.8706512451172 49.95665740966797 72.07209777832031 46.12385559082031 173.212646484375 61.02581787109375 183.5540313720703 21.018543243408203 146.03160095214844 59.54026794433594 69.77603149414062 79.25128173828125 45.888790130615234 161.9293670654297 125.64378356933594 134.5308837890625 -24.557586669921875 -10.594701766967773 68.8341293334961 124.28640747070312 165.97592163085938 91.42791748046875 108.62194061279297 106.47737121582031 217.88079833984375 36.45956039428711 110.76162719726562 152.0028076171875 159.3931884765625 93.24927520751953 80.0713882446289 34.3669548034668 -8.454480171203613 26.240022659301758 66.77316284179688 76.32923126220703 259.4620056152344 43.56853485107422 79.99699401855469 47.89701843261719 112.79005432128906 67.0315170288086 64.47850036621094 54.80175018310547 123.87120819091797 44.552513122558594 182.6444854736328 159.30809020996094 207.27577209472656 95.15670013427734 107.43802642822266 89.38162994384766 127.58638000488281 108.1783676147461
果たす -9.834802627563477 2.034942388534546 20.166580200195312 -6.8058247566223145 3.558194398880005 -21.74028205871582 1.7309184074401855 -8.721732139587402 8.875699996948242 -4.950384140014648 17.21731185913086 11.576871871948242 7.007300853729248 6.905226230621338 9.72637939453125 5.719820976257324 18.29155731201172 1.2032965421676636 -9.274412155151367 1.1818561553955078 15.624995231628418 44.718448638916016 20.04735565185547 18.152545928955078 9.918111801147461 -10.748136520385742 1.880531668663025 10.023275375366211 85.34288024902344 48.215675354003906 0.874633252620697 16.798709869384766 5.3194427490234375 -9.387409210205078 4.226316928863525 -1.295639157295227 40.53111267089844 13.792389869689941 23.684680938720703 27.060253143310547 14.730295181274414 13.789060592651367 11.150178909301758 -9.092561721801758 -9.389208793640137 48.953208923339844 8.843343734741211 0.19776217639446259 23.692214965820312 51.126705169677734 12.359658241271973 4.684864044189453 8.7078218460083 -1.1899371147155762 2.013031005859375 1.9089341163635254 35.64628219604492 -28.046533584594727 -16.369253158569336 43.47924041748047 19.594158172607422 52.3321418762207 -9.157689094543457 20.322965621948242 88.04119873046875 4.044045925140381 67.9949951171875 36.07955551147461 40.58103561401367 64.08538818359375 40.94521713256836 8.862832069396973 17.690326690673828 5.933868408203125 56.5252571105957 58.96658706665039 52.21710968017578 23.81168556213379 51.2819938659668 34.59672164916992
低かっ/ひくかっ 39.10829162597656 54.83561706542969 18.771936416625977 15.293100357055664 63.26661682128906 16.563817977905273 88.92793273925781 -5.913960933685303 12.892621994018555 -7.119159698486328 10.585433959960938 -19.95015525817871 -1.8011183738708496 16.457693099975586 27.774675369262695 -14.303607940673828 180.8542022705078 44.7704963684082 55.99566650390625 77.18057250976562 63.42323303222656 121.40971374511719 84.36476135253906 141.15467834472656 209.9518280029297 44.667198181152344 242.2784423828125 64.97138214111328 131.55343627929688 37.86835861206055 198.7293701171875 93.88166809082031 203.7349853515625 0.7908101081848145 153.20123291015625 78.59969329833984 32.73060607910156 82.13361358642578 66.83263397216797 152.73753356933594 123.86061096191406 151.93983459472656 36.46760177612305 -15.55804443359375 72.12895202636719 51.03225326538086 126.78961181640625 98.8184814453125 116.43286895751953 227.68475341796875 203.97996520996094 39.21400833129883 140.8340301513672 118.94706726074219 139.65310668945312 41.84634017944336 123.76486206054688 11.67817497253418 -26.073793411254883 29.505762100219727 91.3726806640625 62.66677474975586 244.17123413085938 57.18560028076172 91.79508972167969 64.56804656982422 46.202789306640625 77.99075317382812 53.21926498413086 134.8326416015625 158.3089141845703 30.951997756958008 175.086669921875 171.28662109375 184.19247436523438 163.18988037109375 125.92032623291016 25.52716064453125 153.22119140625 122.2820816040039
温暖 -11.636312484741211 -6.6310529708862305 -4.825157642364502 5.830232620239258 8.158385276794434 -9.450932502746582 -10.485265731811523 -7.9304118156433105 5.079492568969727 12.064428329467773 -18.060832977294922 -6.067199230194092 15.474204063415527 25.533044815063477 27.29819107055664 -19.792707443237305 -1.2944215536117554 8.836338996887207 -8.62785816192627 -12.646723747253418 -4.548239707946777 37.159088134765625 -13.278812408447266 -8.654592514038086 -33.75767135620117 -13.563687324523926 13.750711441040039 -2.843956708908081 66.55513763427734 57.596435546875 -11.445216178894043 3.5879688262939453 -8.90251636505127 -18.455835342407227 -17.592323303222656 -11.94483757019043 42.492469787597656 41.60581588745117 -19.268835067749023 -9.481146812438965 21.263599395751953 -11.411149024963379 32.13299560546875 3.978332042694092 4.058966636657715 69.71862030029297 -6.593148231506348 -15.56799602508545 4.691260814666748 26.179237365722656 -12.064777374267578 -5.599785804748535 5.878361225128174 -9.349311828613281 -21.04924964904785 -14.579129219055176 2.1166462898254395 -1.8827602863311768 -25.507328033447266 8.664756774902344 -16.1202335357666 22.991239547729492 -11.652871131896973 21.83399772644043 76.52958679199219 22.418737411499023 65.44295501708984 16.280712127685547 35.197288513183594 51.51210021972656 33.38771438598633 12.768047332763672 2.9279606342315674 -0.22387579083442688 20.967544555664062 9.26565933227539 52.50463104248047 44.535682678222656 16.217090606689453 30.59357261657715
落とす/おとす 44.68678283691406 45.28061294555664 2.461677074432373 -7.23564338684082 17.867746353149414 -9.633145332336426 90.6398696899414 3.358456611633301 16.096784591674805 4.807640075683594 48.51470947265625 4.584656238555908 29.407033920288086 6.905222415924072 25.685115814208984 6.498191833496094 147.28443908691406 4.461541175842285 57.263648986816406 57.53962326049805 80.00397491455078 41.77887725830078 50.08610534667969 105.56363677978516 193.0144500732422 53.04018783569336 232.4859619140625 39.074432373046875 73.59120178222656 50.65240478515625 155.28250122070312 61.970069885253906 170.36099243164062 28.891876220703125 128.07765197753906 75.31441497802734 55.20030975341797 105.56932067871094 44.95695495605469 154.51992797851562 98.20782470703125 185.7382049560547 25.977739334106445 34.71088409423828 88.90945434570312 55.08652877807617 91.7946548461914 91.03370666503906 89.90052032470703 150.83901977539062 192.82745361328125 34.957027435302734 76.45448303222656 167.32669067382812 160.94387817382812 12.512883186340332 99.17095184326172 3.947624921798706 2.6168718338012695 103.66470336914062 98.60789489746094 69.82328796386719 252.5076904296875 15.528841018676758 174.675537109375 22.45368766784668 64.10417175292969 84.0420150756836 68.75320434570312 69.52153015136719 142.65255737304688 17.776304244995117 188.1573944091797 147.63531494140625 190.2921142578125 89.99967956542969 137.4996795654297 93.36603546142578 128.9187774658203 112.12036895751953
連帯 -5.1701436042785645 4.104735374450684 16.132936477661133 8.0818510055542 6.17195987701416 21.937517166137695 -9.869179725646973 -6.121492385864258 27.199100494384766 14.461923599243164 11.429899215698242 -8.321436882019043 16.75931739807129 33.79539108276367 30.17101287841797 4.694010257720947 -7.370242118835449 23.680912017822266 -11.936765670776367 -17.396224975585938 4.756079196929932 33.686832427978516 -9.772016525268555 -7.417616844177246 -17.895475387573242 1.1247546672821045 22.246997833251953 3.446065664291382 51.50920104980469 53.69517135620117 -14.190041542053223 6.312508583068848 -21.846078872680664 -3.182785987854004 -7.354090690612793 5.24772310256958 50.85087966918945 51.056396484375 -19.474185943603516 -3.380162477493286 0.15194755792617798 9.196818351745605 43.748573303222656 1.0661375522613525 3.7628872394561768 63.37220764160156 9.511770248413086 -3.0331008434295654 -1.5995384454727173 18.418766021728516 -5.548216342926025 -9.52293586730957 12.256378173828125 -17.607690811157227 -18.05987548828125 -10.021525382995605 1.9776690006256104 -4.850736618041992 7.6431732177734375 33.208824157714844 -14.125021934509277 14.103062629699707 -3.983455181121826 32.81992721557617 67.84346008300781 26.5249080657959 52.29901885986328 29.532033920288086 30.04039192199707 67.40438079833984 23.224985122680664 28.28603172302246 5.950657844543457 -2.3725624084472656 9.895866394042969 10.394241333007812 67.46845245361328 46.278995513916016 24.77573585510254 34.78767395019531
情 2.9797911643981934 5.488366603851318 -16.66368865966797 2.637720823287964 1.8222144842147827 -11.694430351257324 -26.05024528503418 -14.630537986755371 15.550531387329102 6.684243679046631 24.533309936523438 21.144838333129883 -7.494149208068848 21.419240951538086 12.955923080444336 29.542619705200195 2.4432339668273926 20.012975692749023 -38.06865692138672 -39.6076774597168 -2.3041749000549316 39.96464920043945 -49.65888977050781 -49.854774475097656 -30.06390953063965 -5.375974178314209 -4.845797538757324 3.8191938400268555 48.2994499206543 25.91866111755371 -22.419336318969727 4.89043664932251 -17.351348876953125 -4.246044158935547 -10.413267135620117 11.280243873596191 20.647062301635742 31.074073791503906 -21.556974411010742 14.576443672180176 -5.955869674682617 -14.369879722595215 38.00228500366211 -16.848241806030273 14.732504844665527 55.491756439208984 12.600300788879395 15.452683448791504 8.910080909729004 41.95763397216797 9.351693153381348 -0.26443424820899963 -10.899086952209473 -23.440414428710938 -12.486974716186523 18.35511016845703 8.479375839233398 -0.3364659547805786 -21.56861114501953 6.844089031219482 -8.778847694396973 32.4586181640625 -2.787196636199951 23.195249557495117 75.65142059326172 18.54990005493164 31.0278377532959 40.569000244140625 20.419458389282227 51.690338134765625 11.205211639404297 3.2429990768432617 9.506964683532715 20.218505859375 32.64334487915039 7.202493190765381 36.170623779296875 30.771080017089844 3.998429298400879 12.490812301635742
乗ら 0.34069615602493286 -1.2510493993759155 45.53779220581055 27.95946502685547 6.681381702423096 -5.187983512878418 2.6188879013061523 29.13218879699707 0.27866899967193604 17.421022415161133 -12.451519966125488 23.353199005126953 15.11007308959961 25.957599639892578 25.231029510498047 14.34769344329834 4.247587203979492 15.476433753967285 -4.298784255981445 0.4056900143623352 20.190505981445312 25.838741302490234 -18.67665672302246 10.3920259475708 -7.9996337890625 -16.151836395263672 9.90715217590332 13.89065170288086 94.9145736694336 39.84534454345703 -3.716756820678711 -10.778505325317383 -14.198444366455078 -21.79281234741211 -1.1241395473480225 -11.963371276855469 23.85348892211914 55.15226364135742 -11.15888786315918 2.059805393218994 4.956989765167236 -3.274090051651001 65.7599105834961 13.736555099487305 -9.996525764465332 77.27298736572266 -13.305440902709961 -10.252660751342773 0.43971240520477295 21.77809715270996 2.998804807662964 0.8957407474517822 10.388357162475586 -13.262839317321777 -4.445727348327637 4.2868733406066895 31.11488151550293 6.4157280921936035 -7.594304084777832 6.245443344116211 -6.720299243927002 38.21607971191406 -0.14866340160369873 13.539461135864258 67.13306427001953 38.501731872558594 49.43853759765625 67.26512908935547 56.06760787963867 38.5855598449707 12.729679107666016 28.732528686523438 2.3880045413970947 7.600490093231201 15.032936096191406 6.248963832855225 53.56342697143555 32.598846435546875 38.725318908691406 27.229970932006836
霊感/れいかん 32.6435661315918 53.21223831176758 2.237733840942383 9.631267547607422 44.99565505981445 19.90766716003418 97.21751403808594 7.738346099853516 13.972719192504883 -4.086854934692383 10.242256164550781 3.656165838241577 -12.563758850097656 42.112831115722656 -7.134018898010254 -3.1190388202667236 122.07243347167969 37.317893981933594 82.25486755371094 66.48920440673828 61.449249267578125 86.91764068603516 59.2221794128418 100.48536682128906 223.6316680908203 61.39044189453125 230.78013610839844 29.38960838317871 90.15797424316406 40.58659362792969 163.6963653564453 59.69367980957031 162.09719848632812 28.45298194885254 144.7460174560547 73.75540161132812 50.59025192260742 84.28119659423828 33.8089485168457 170.0742950439453 119.26110076904297 134.8308868408203 30.300724029541016 -5.103850364685059 74.67427062988281 53.44782257080078 95.5617904663086 103.32496643066406 78.10331726074219 130.6737823486328 188.07891845703125 39.52506637573242 117.60318756103516 141.18104553222656 130.4510040283203 75.09815979003906 73.28953552246094 17.53280258178711 -19.676326751708984 49.06330108642578 81.97549438476562 59.64858627319336 272.0870056152344 22.915311813354492 86.75724029541016 16.50525665283203 64.72462463378906 82.16989135742188 74.55598449707031 77.61200714111328 173.91004943847656 20.836002349853516 166.44332885742188 140.2550506591797 200.32403564453125 120.19810485839844 128.5247802734375 105.47262573242188 118.24515533447266 122.9100570678711
大人達/おとなたち 52.30282211303711 47.701107025146484 38.73086166381836 36.058292388916016 17.867746353149414 -6.118086338043213 92.41291809082031 5.82913875579834 28.55594253540039 16.71381950378418 14.564593315124512 23.90502166748047 4.387569427490234 24.924694061279297 48.01848602294922 1.5699739456176758 155.20709228515625 4.8782572746276855 64.78894805908203 57.53961944580078 92.15299987792969 28.334693908691406 51.31169128417969 97.93135070800781 193.01449584960938 49.83511734008789 237.06600952148438 54.083980560302734 84.26066589355469 68.79540252685547 165.60504150390625 75.09512329101562 173.4943389892578 18.472232818603516 140.46331787109375 78.56859588623047 50.73685073852539 90.71623992919922 34.1721076965332 163.5018768310547 85.9437026977539 187.026123046875 -24.596107482910156 -3.8855457305908203 100.50311279296875 75.48149108886719 91.73387908935547 79.87999725341797 73.75234985351562 137.1563720703125 197.74453735351562 49.7459716796875 70.59109497070312 172.0089111328125 158.62960815429688 19.969772338867188 114.66690826416016 10.759315490722656 -0.3003174066543579 24.184410095214844 82.79789733886719 77.1549301147461 269.23992919921875 35.72597122192383 91.7219467163086 38.2834587097168 79.0254898071289 116.32180786132812 48.52226257324219 49.20204544067383 153.26541137695312 39.27676010131836 197.3736572265625 145.25987243652344 204.0430145263672 80.48090362548828 169.73817443847656 77.0147933959961 85.10648345947266 81.93500518798828
近い -14.162817001342773 -2.7117154598236084 4.655187129974365 16.547231674194336 9.168197631835938 -3.0589749813079834 -18.653934478759766 6.104954719543457 -0.010007336735725403 12.303718566894531 23.679454803466797 3.265620470046997 -9.982514381408691 13.821864128112793 11.396317481994629 21.774580001831055 -13.356684684753418 12.412928581237793 21.36547088623047 -5.945335865020752 8.743314743041992 30.052980422973633 -28.511301040649414 0.8758858442306519 -24.24612045288086 -12.869288444519043 0.28156083822250366 11.568055152893066 74.97808837890625 54.82391357421875 -2.0710246562957764 6.266768455505371 -6.6328511238098145 -21.64678382873535 -6.626990795135498 -22.083293914794922 28.179607391357422 50.665771484375 -23.425872802734375 -9.32862663269043 26.273517608642578 -11.057781219482422 24.225528717041016 -5.611970901489258 18.495512008666992 99.38158416748047 4.531569480895996 -2.802804470062256 16.795616149902344 40.80247116088867 -5.39194393157959 6.8090314865112305 -4.671940803527832 19.777507781982422 -11.561676979064941 -15.158448219299316 2.7254695892333984 -11.157530784606934 -41.92185974121094 27.37506675720215 -14.680256843566895 28.664180755615234 9.151505470275879 19.590848922729492 58.26180648803711 24.27654266357422 97.70751190185547 57.61714172363281 30.510406494140625 51.72470474243164 15.59948444366455 47.18838119506836 13.219696998596191 4.044494152069092 19.499238967895508 17.947416305541992 89.13594055175781 70.74491119384766 13.344572067260742 31.66756820678711
